{"to_hidden.weight": [[-0.0876336544752121, 0.32817912101745605, 0.38906532526016235, 0.3266502022743225, -0.012231260538101196, -0.22976218163967133, -0.29971420764923096, 0.8201425671577454, -0.5839127898216248, -0.335888147354126, -0.33676573634147644, -0.358866810798645, -0.21173036098480225, -0.45128387212753296, -0.398506224155426, 0.5344663858413696, -0.0009703215910121799, 0.18207068741321564, 0.05379859358072281, 0.18754389882087708, -0.2615143954753876, 0.1950516253709793, 0.45347556471824646, 0.31318390369415283, -0.5067598223686218, -0.39487072825431824, 0.5497415661811829, -0.675252377986908, -0.47427797317504883, 0.267177015542984, -0.7042577862739563, 0.26097434759140015, 0.31584128737449646, 0.2489003837108612, -0.14230337738990784, -0.297362744808197, 0.34190258383750916, 0.12049528956413269, -0.13711610436439514, -0.11470748484134674], [0.25188571214675903, -0.0927935317158699, -0.07396699488162994, 0.06670131534337997, -1.0184465646743774, 0.7859150767326355, -0.6941884160041809, -0.4566729962825775, 0.2537844479084015, 0.3083235025405884, -0.24532383680343628, -0.05091681331396103, -0.425459086894989, -0.6355180740356445, -0.4432714581489563, 0.291349858045578, -0.27029386162757874, 0.06385748833417892, -0.05710940435528755, 0.14481310546398163, -0.21143753826618195, 0.3506198823451996, 1.1291738748550415, -0.4681185185909271, -0.20076888799667358, 0.07502643018960953, 0.5987024903297424, -0.06257537752389908, -0.709720253944397, -0.00917273573577404, 0.20374740660190582, 0.3292165994644165, 1.068274974822998, 0.2124226987361908, 0.00548053253442049, 0.3996507227420807, 0.07310248911380768, 0.05304095894098282, 0.08957722038030624, 0.3646407127380371], [0.03812104091048241, 0.2645840048789978, -0.05218871310353279, 0.08379536122083664, -0.3051823675632477, -0.7691071629524231, 0.23980124294757843, -0.5702987313270569, -0.30175110697746277, 0.3816581964492798, 0.26950177550315857, 0.3625715970993042, -0.3229193389415741, -0.20340970158576965, -0.06473272293806076, 1.040527105331421, -0.051386550068855286, 0.9929821491241455, -0.10161609947681427, -0.11345227062702179, 0.05741370841860771, 0.2527947425842285, 0.964823842048645, 0.10047425329685211, -0.09193437546491623, 0.06848708540201187, -0.5182892084121704, -0.2681402564048767, -0.5358120799064636, -0.6245771646499634, -0.1876869648694992, 0.020502625033259392, -0.39726465940475464, 0.08963478356599808, -0.4871053695678711, -0.6221506595611572, 0.34932035207748413, -0.545257031917572, -0.42214417457580566, -0.11030036211013794], [-0.02501719631254673, 0.07132040709257126, 0.26752784848213196, 0.3520291745662689, -1.3271937370300293, 0.1615009754896164, -0.1640913188457489, 0.022161737084388733, 0.48754602670669556, 0.059353336691856384, -0.03352457657456398, 0.13206109404563904, -0.3577694296836853, 0.12981610000133514, -0.03128301724791527, -0.9785855412483215, -0.01534022856503725, -0.9880164265632629, 0.11663313210010529, -0.6533529758453369, 0.49626266956329346, 0.22647948563098907, -1.0147780179977417, 1.2088295221328735, -0.5832159519195557, -0.0778130292892456, 0.09931766986846924, 0.28246980905532837, 0.559123694896698, -0.48659464716911316, -0.018137389793992043, 0.019663183018565178, 1.0030561685562134, -0.044874198734760284, 1.3538827896118164, -0.20399299263954163, 0.3367841839790344, 0.6244781017303467, -0.4539492726325989, 0.7195305824279785], [-0.0973869040608406, 0.3759690225124359, 0.4436520040035248, -0.07635840028524399, -0.6211675405502319, -0.5226961374282837, -0.2772783041000366, -0.16342869400978088, -0.0714726522564888, 0.2913244068622589, 0.062294479459524155, 0.11627721041440964, -0.3113234341144562, 0.0772879496216774, 0.5964385867118835, 0.18719668686389923, -0.47771304845809937, 0.672112762928009, 0.004531276412308216, -0.25882330536842346, -0.36426544189453125, -0.6727209091186523, -0.7487590909004211, -0.3588583767414093, 0.005610202439129353, 0.16670569777488708, -0.6071308255195618, 0.6391496658325195, 0.45753949880599976, -0.08275770395994186, 0.13278982043266296, 0.3853095471858978, -0.22044982016086578, 0.45185744762420654, 0.38486674427986145, 0.30504775047302246, -0.12264575064182281, -0.4495702385902405, -0.6557196974754333, -0.793816864490509], [0.42595866322517395, -0.5976219773292542, -0.41715574264526367, -0.3629121780395508, -0.2416658103466034, -0.638880729675293, 0.23368793725967407, -0.6946563124656677, 0.28297847509384155, 0.09502790868282318, -0.4429861009120941, -0.2482244223356247, 0.04601605236530304, -0.39330440759658813, 0.5741320252418518, -0.4517979621887207, -0.2686541676521301, 0.8957462310791016, -0.4911387860774994, 0.35504910349845886, 0.25704267621040344, -0.12452087551355362, 1.0099881887435913, 0.5322621464729309, 0.4028812050819397, 0.3588275611400604, -0.20968279242515564, 0.05164455249905586, -0.2487451285123825, 0.16954946517944336, 0.015315135940909386, 0.8179766535758972, -0.21674427390098572, 0.41095495223999023, 0.6955804228782654, 0.0071901557967066765, 0.08558287471532822, 0.1170925498008728, -0.21707746386528015, 0.03710317239165306], [-0.07139330357313156, 0.6033440828323364, -0.18719401955604553, -0.0395674966275692, -0.1093296930193901, 0.029209768399596214, 0.3576548099517822, 0.5995696783065796, 0.26066508889198303, -0.054165422916412354, -0.16854283213615417, -0.010172785259783268, -0.14816465973854065, -0.8561736345291138, -0.35920098423957825, -0.11241521686315536, -0.16614115238189697, 0.0979306623339653, 0.8060360550880432, 1.4946411848068237, -0.4045056104660034, -0.1416618525981903, 0.9788310527801514, -0.18165087699890137, 0.8602564334869385, -0.2569984197616577, 0.5361096858978271, 0.06091718003153801, -0.2606372833251953, 0.26899200677871704, -0.14561350643634796, 0.16017170250415802, 0.052500348538160324, 0.18763302266597748, 0.21204215288162231, -0.38847020268440247, -0.772722601890564, 0.8885722756385803, -0.05835721641778946, 0.5906946659088135], [0.10048557817935944, -0.038859374821186066, -0.4053312838077545, 0.017364703118801117, 0.2807178497314453, 0.42508062720298767, 0.9720818996429443, 0.4194701910018921, -0.32592394948005676, 0.3714391589164734, 0.5363239645957947, 0.2549332082271576, 0.43777400255203247, 0.3643004894256592, 0.0781175047159195, 0.2728210389614105, 0.10600870847702026, -0.4310077726840973, -0.7675085067749023, -1.1033939123153687, -0.18043112754821777, 0.20765699446201324, -0.8731734156608582, 0.2768982946872711, 0.10669119656085968, -0.09236602485179901, -0.6535929441452026, -0.17126210033893585, 0.8224201798439026, 0.357341468334198, 0.6773460507392883, -0.04799793288111687, 0.33204060792922974, -0.7532533407211304, -0.04109201207756996, -0.657945990562439, 0.1703774482011795, -0.07942147552967072, -0.2417769730091095, -0.28057751059532166], [-0.07905984669923782, -0.22745943069458008, 0.15080994367599487, -0.4581214189529419, 0.02916913665831089, 0.27898654341697693, -0.189249187707901, 0.5059429407119751, -0.22761712968349457, 0.19265344738960266, -0.020097943022847176, 0.03336046263575554, -0.41915789246559143, -0.10270606726408005, -0.11064311116933823, -0.2764146029949188, -0.14012344181537628, 0.8453315496444702, -0.19563060998916626, 0.17335547506809235, -0.1337861865758896, 0.10620874166488647, 0.30556854605674744, 0.04495413601398468, 0.7639008164405823, 0.24265341460704803, -0.020292911678552628, -0.3745213747024536, -0.8334131240844727, 0.10461984574794769, 0.17259380221366882, 0.42389750480651855, 0.7128229737281799, 0.022291377186775208, -0.600544810295105, -0.8192412853240967, 0.2201261818408966, 0.31006598472595215, -0.20394006371498108, -0.6936596035957336], [0.06500813364982605, -0.9826236963272095, 0.16225022077560425, 0.546431839466095, 0.18396492302417755, -0.36578568816185, -0.08680234104394913, 0.5759859681129456, 0.20544368028640747, -0.016060952097177505, 0.3182500898838043, -0.1579294353723526, 0.011896513402462006, 0.23767291009426117, 0.008353246375918388, 0.5406590104103088, -0.15874642133712769, 0.485087126493454, 0.06827269494533539, -0.301031231880188, 0.017890773713588715, -0.04505249485373497, -0.9642030000686646, 0.33104267716407776, -0.2567558288574219, 0.05278432369232178, -0.23121832311153412, -0.09412993490695953, -0.09834490716457367, -0.11913395673036575, -0.050655607134103775, 0.16758139431476593, -0.3792843520641327, -0.3310026526451111, 0.15455372631549835, 0.1427876204252243, 0.14088790118694305, -0.11579865962266922, 0.1590522825717926, 0.5323873162269592], [-0.5180554986000061, -0.12557034194469452, -0.18496407568454742, -0.19855839014053345, 0.4592626988887787, -0.6740618348121643, 0.013290383853018284, -0.009496212005615234, 0.1297103613615036, 0.11326883733272552, 0.05683474987745285, 0.3557538688182831, -0.42011401057243347, -0.3220139145851135, 0.008687159046530724, 0.26368001103401184, -0.30293503403663635, 0.49129974842071533, -0.23166242241859436, 0.26958444714546204, -0.4276786148548126, 0.4362911283969879, 1.067574381828308, 0.579298198223114, 0.4401899576187134, -0.09180832654237747, 0.7181859016418457, 0.12449028342962265, 0.2903977632522583, -0.061268337070941925, 0.0007225252920761704, 0.6604981422424316, 0.32790523767471313, 0.03109886683523655, 0.19305570423603058, 0.5392751097679138, -0.4675159156322479, 0.5609538555145264, 0.9391209483146667, 0.09159132838249207], [0.09928858280181885, -0.23954829573631287, -0.253280371427536, 0.14624835550785065, -0.21143902838230133, 0.4051787257194519, -0.3385970890522003, -0.16046227514743805, -0.35176295042037964, -0.2835277318954468, -0.37081658840179443, -0.33723992109298706, -0.6508155465126038, 0.5402225852012634, -0.2666691541671753, 0.06890006363391876, 0.11192444711923599, 0.49549439549446106, 0.1969480812549591, 0.024167142808437347, 0.2488347440958023, -0.004210218787193298, 0.14215244352817535, -0.4959530234336853, -0.45646968483924866, -0.3735162019729614, 0.4332750737667084, -0.005949861370027065, 0.0337490551173687, 0.234435573220253, -0.04964696243405342, 0.40190574526786804, 0.7932941913604736, 0.44728466868400574, 0.17472107708454132, -0.06301559507846832, -0.21196317672729492, -0.19177578389644623, 0.17851097881793976, -0.2578938603401184], [-0.04058810696005821, 0.3335127532482147, -0.16868920624256134, 0.0680784061551094, -0.24403342604637146, -0.3508833646774292, -0.05709115043282509, -0.2152097076177597, 0.31285029649734497, -0.15670113265514374, 0.1599637269973755, -0.277497261762619, -0.6814431548118591, 0.03481569513678551, 0.05895432457327843, -0.8652830123901367, -0.23698388040065765, 0.7385280132293701, 0.1907563954591751, 0.5533056855201721, 0.09725804626941681, -0.13493777811527252, -0.40746447443962097, -0.13392037153244019, 0.5189991593360901, -0.1596665382385254, -0.43220245838165283, -0.03551286831498146, -0.2260766625404358, 0.438777893781662, 0.41444841027259827, -0.19191449880599976, 0.33955204486846924, 0.1528109610080719, -0.4421970546245575, -0.414803147315979, 0.2933178246021271, 0.11067619919776917, 0.11568623781204224, -0.35205045342445374], [0.035048604011535645, 0.04661675915122032, -0.030825510621070862, 0.013686347752809525, 0.0194290392100811, -0.2535017728805542, 0.26200661063194275, -0.5512620806694031, 0.19823478162288666, 0.09483030438423157, -0.08728969842195511, -0.22485443949699402, 0.22552238404750824, 0.11420968174934387, 0.10540514439344406, -0.7159406542778015, -0.09660226106643677, -1.0245802402496338, 0.334532231092453, 0.39640554785728455, 0.0013261603889986873, -0.02621247060596943, -0.547214686870575, -0.4337834119796753, -0.1373175084590912, 0.034656886011362076, 0.44811931252479553, 0.02633601799607277, 0.3993951976299286, 0.3383842706680298, -0.028976688161492348, 0.3905291259288788, -0.2993943989276886, 0.14099882543087006, -0.2501094937324524, -0.21738235652446747, -0.05219114199280739, 0.13857491314411163, 0.08649876713752747, -0.06028071045875549], [-0.07064070552587509, 0.08655288815498352, 0.38226351141929626, -0.011886538937687874, 0.20598161220550537, -0.42700695991516113, 0.41535383462905884, 0.6763598918914795, -0.6865049004554749, -0.15366916358470917, 0.028591366484761238, -0.14519450068473816, 0.4130178689956665, 0.7509861588478088, -0.2622174918651581, 0.327789306640625, 0.08586123585700989, -0.2526407241821289, 0.02575196512043476, 0.6058503985404968, 0.03796226903796196, -0.1887737661600113, -1.871608018875122, 0.19344623386859894, -0.20489449799060822, -0.384854793548584, 0.024030661210417747, -0.046754270792007446, 0.4182209074497223, 0.3432445228099823, 0.6438131332397461, 0.5726167559623718, 0.16133563220500946, -0.8123306632041931, 0.5171460509300232, -0.21849974989891052, -0.5841214656829834, 0.6997496485710144, 0.21733073890209198, 0.15214917063713074], [-0.09601087123155594, -0.7411912083625793, -0.21656009554862976, -0.32876554131507874, -0.2319263219833374, -0.6819159984588623, 0.2818089723587036, -0.019272640347480774, 0.7519649267196655, 0.07778067141771317, 0.07407564669847488, -0.2042871117591858, 0.26740747690200806, 0.07258357107639313, 0.4739217162132263, 0.7455186247825623, -0.050295863300561905, 0.6724217534065247, 0.3885877728462219, 0.7175132632255554, 0.20851919054985046, 0.10462748259305954, -0.2585887908935547, 0.2887588441371918, -0.14507192373275757, 0.16843697428703308, 0.4237757623195648, 0.4472287595272064, 0.26034119725227356, 0.05525683984160423, -0.02465520054101944, -0.2787632644176483, 0.5941407680511475, 0.4543745517730713, 0.10513323545455933, -0.5022760033607483, 0.3794780969619751, -0.27136465907096863, -0.16437764465808868, 0.4798887073993683], [0.2554047107696533, 0.30605348944664, -0.32335081696510315, 0.058080967515707016, -0.11630486696958542, -0.426806777715683, -0.9001834392547607, 0.9777454137802124, -0.5969283580780029, -0.15573754906654358, 0.01959066465497017, -0.1368551403284073, -0.2880999445915222, 0.12011820077896118, -0.09855188429355621, -0.1703329235315323, -0.06348291039466858, 0.3666999638080597, -0.37080660462379456, 0.0050158123485744, 0.17378701269626617, -0.5411427617073059, 0.5825372934341431, 0.4729060232639313, 0.3836486041545868, 0.42647305130958557, -0.48211047053337097, 0.26740285754203796, 0.7442068457603455, 0.2691565752029419, 0.3484395742416382, -0.1393730789422989, -0.004342729691416025, 0.10900785028934479, -0.6372128129005432, 0.2952136695384979, 0.5239968299865723, -0.6008236408233643, -0.23696647584438324, 0.5414673686027527], [-0.1770610809326172, 0.332848459482193, 0.18539227545261383, 0.35790571570396423, 0.23259709775447845, 0.6007643938064575, 0.6103052496910095, -0.5944748520851135, -0.6219019293785095, -0.40100494027137756, 0.019015628844499588, 0.8358905911445618, -0.28753817081451416, -0.13528797030448914, 0.09095411747694016, -0.35963642597198486, 0.03210022673010826, -0.7198524475097656, 0.1893848180770874, -0.46458494663238525, -0.1264699250459671, -0.16059330105781555, 0.3676289916038513, 0.25875571370124817, -0.05014076083898544, 0.10059066861867905, 0.22025230526924133, 0.19322219491004944, -0.7542625665664673, 0.7552489638328552, -0.35302242636680603, 0.3309009075164795, 0.7049179077148438, -0.16316038370132446, 0.874455988407135, 0.4329639971256256, 0.17913338541984558, -0.16079191863536835, -0.27922093868255615, 0.6981481313705444], [0.05275096371769905, 0.38108667731285095, 0.19919884204864502, -0.04690494015812874, -0.6770377159118652, -0.44938787817955017, 0.018144888803362846, 0.21885934472084045, 0.5328243374824524, 0.11509892344474792, 0.6285982728004456, -0.24280336499214172, -0.22784218192100525, 0.4142068326473236, 0.20593690872192383, 0.4959357678890228, -0.1609928160905838, -0.3281525671482086, 0.3905215859413147, -0.052972253412008286, 0.1428678184747696, 0.01880253478884697, -0.817671537399292, -0.09338591992855072, 0.2321465164422989, -0.4240381717681885, -0.2380516678094864, -0.08182449638843536, 0.21727201342582703, -0.1432858407497406, -0.07151708006858826, -0.3736284375190735, -0.8959987163543701, 0.36567896604537964, -0.13356341421604156, 0.17765676975250244, -0.11755595356225967, -0.40336257219314575, -0.0637044757604599, 0.13969019055366516], [0.30931180715560913, 0.3005807399749756, -0.8541929721832275, -0.007917596027255058, 0.18263845145702362, 1.0016568899154663, 0.2449023425579071, -0.4307481646537781, 0.03059522621333599, -0.10480932891368866, -0.027915343642234802, -0.41425299644470215, 0.28203481435775757, 0.2607778012752533, 0.16523586213588715, -0.3601234555244446, -0.12841518223285675, -1.0615330934524536, 0.3124667704105377, -0.1249338909983635, -0.29003602266311646, 0.04248496890068054, -1.3223052024841309, -0.46034058928489685, 0.018450595438480377, 0.04511435329914093, 0.8938518166542053, 0.1983211636543274, -0.07241258770227432, 0.2977707087993622, 0.000878906634170562, -0.6814183592796326, 0.3548029363155365, 0.1419459730386734, 0.5888583064079285, 0.18203328549861908, 0.2168494462966919, -0.06754045933485031, 0.39960652589797974, 0.010257825255393982], [0.2067454606294632, -0.36251604557037354, 0.29646793007850647, 0.07407480478286743, -0.09724501520395279, 0.23646947741508484, -0.08795958757400513, -0.3130260407924652, -0.19716782867908478, 0.024759750813245773, -0.30788272619247437, 0.15701642632484436, 0.20182010531425476, 0.03755609691143036, 0.3135985732078552, -0.7436560988426208, 0.19044183194637299, 0.869101345539093, -0.0019527995027601719, -0.006760168354958296, 0.2877216339111328, 0.03152568265795708, 1.6772476434707642, -0.8321646451950073, 0.026143468916416168, -0.014461386017501354, 0.3888779580593109, -0.2559141218662262, -0.04052959382534027, 0.11463291198015213, -0.7486950159072876, 0.19685238599777222, 0.5402311682701111, -0.24842917919158936, 0.028996828943490982, -0.6760967969894409, -0.1676371991634369, -0.39753976464271545, -0.6740505695343018, 0.23253247141838074], [0.027835115790367126, 0.4222581386566162, -0.05278075113892555, -0.07123276591300964, -0.13590946793556213, 0.7218993306159973, -0.06471652537584305, -0.0832449346780777, 0.09015152603387833, 0.22686292231082916, 0.13955669105052948, -0.08748472481966019, 0.11666728556156158, 0.5535884499549866, 0.01757078617811203, 0.2926936447620392, 0.06740356981754303, -0.12003059685230255, -0.38992688059806824, 0.10610930621623993, -0.07212856411933899, -0.0108862966299057, -0.44346898794174194, 0.6878344416618347, 0.3382645547389984, 0.24475546181201935, -0.28028571605682373, -0.2415016144514084, 0.02332766354084015, 0.061020515859127045, -0.26136186718940735, -0.8180280923843384, -1.074471116065979, -0.3521551191806793, 1.074855089187622, 0.4018140733242035, -0.026756707578897476, -0.23336103558540344, 0.38274702429771423, 1.0397937297821045], [-0.13538587093353271, 0.1579313427209854, 0.05937803536653519, -0.06791511923074722, 0.42156079411506653, 0.3813437819480896, -0.050865866243839264, -0.3988494873046875, 0.30996307730674744, -0.208583265542984, 0.5678420066833496, 0.27466779947280884, 0.13928602635860443, -0.0003780722036026418, 0.5118709206581116, 0.12633173167705536, 0.3526551425457001, -0.6500793099403381, 0.26532506942749023, -0.8334176540374756, -0.011844108812510967, -0.239471435546875, -1.4243593215942383, 0.3806205689907074, 0.34755218029022217, -0.4363251030445099, 0.20510320365428925, 0.0445762500166893, -0.04189639165997505, 0.13915608823299408, 0.04690977558493614, -0.21181660890579224, 0.01621600240468979, 0.12409445643424988, 0.8825220465660095, -0.1535385549068451, -0.6284441351890564, -0.13453911244869232, 0.5075362920761108, 0.8097288012504578], [0.39682552218437195, -0.3977373540401459, 0.278452068567276, 0.015537708066403866, -0.3043229877948761, 0.27167922258377075, -0.14106754958629608, 0.16526275873184204, 0.5829223990440369, -0.08767830580472946, 0.1073441281914711, -0.024425463750958443, -0.09965211153030396, -0.29265496134757996, 0.5485420823097229, -0.06474009156227112, -0.34627819061279297, -0.09086930751800537, 0.03393089398741722, -0.010395803488790989, 0.44245645403862, 0.05284234136343002, -1.320027232170105, -0.4337993264198303, 0.13904324173927307, -0.19231322407722473, -0.1917262226343155, -0.13910271227359772, -0.11436101794242859, 0.2744971811771393, 0.447344034910202, 0.4752862751483917, 0.5677411556243896, -0.8643580079078674, -0.01168111152946949, -0.20490019023418427, 0.038785483688116074, 0.3529708683490753, -0.8915071487426758, 0.10206612199544907], [0.1787753403186798, 0.0514964684844017, -0.41929373145103455, -0.23198309540748596, 0.015071817673742771, 0.9803119897842407, -0.14669299125671387, -0.16925863921642303, -0.5413142442703247, -0.1964310109615326, 0.14517198503017426, 0.17923587560653687, 0.0019138121278956532, -0.08961804956197739, -0.3510601818561554, 0.26263153553009033, -0.21843434870243073, -0.5816580653190613, -0.23072241246700287, 0.10098353028297424, 0.11091084033250809, -0.3758729100227356, -0.32867932319641113, 0.14725825190544128, -0.339127779006958, 0.05785427987575531, 0.5917618274688721, 0.060871999710798264, -0.9672472476959229, -0.77266925573349, 0.43878889083862305, 0.011118881404399872, -0.8280957937240601, -0.13931769132614136, 0.452986478805542, -0.7080234289169312, 0.1415996253490448, 0.07642058283090591, 0.6180117726325989, -0.2003835290670395], [-0.07463086396455765, -0.20957107841968536, -0.04063217341899872, 0.22068020701408386, 0.4876041114330292, -0.09758543968200684, 0.16413471102714539, -0.921017050743103, 0.6950810551643372, 0.19629442691802979, -0.07072790712118149, 0.23485401272773743, -0.1216573640704155, 0.1132449209690094, 0.21281829476356506, 0.371562659740448, 0.32699450850486755, -0.7905391454696655, 0.039043717086315155, 0.07318528741598129, 0.024218756705522537, -0.11446323245763779, -0.7904391288757324, 0.5889798402786255, -0.2504088580608368, -0.05096191167831421, -0.06690888851881027, 0.3838199973106384, -0.6537171006202698, 0.14966781437397003, -0.21401801705360413, 0.43548253178596497, 0.11936643719673157, -0.21353070437908173, -0.03820941969752312, 0.4711425006389618, -0.23721306025981903, 0.48712456226348877, -0.11682210117578506, 0.7358981966972351], [0.031958069652318954, 0.08999862521886826, -0.11224731057882309, 0.10389676690101624, 0.2692631781101227, 0.4771742820739746, 0.052791777998209, -0.18013307452201843, 0.10558028519153595, 0.20515231788158417, 0.07526486366987228, -0.17630977928638458, 0.27484720945358276, -0.173074871301651, -0.13485775887966156, -0.033768072724342346, -0.16106870770454407, 1.2355879545211792, -0.3915664255619049, -0.14935941994190216, 0.31945133209228516, -0.21810059249401093, 1.4490872621536255, -0.04673091694712639, 0.5431991815567017, 0.14256027340888977, -0.1591157466173172, -0.46894529461860657, -0.5054985880851746, -0.29666510224342346, -0.2654426395893097, -0.5489270091056824, -1.1953788995742798, 0.014773419126868248, -0.12136929482221603, -0.02837776578962803, -0.06570558995008469, -0.4361656904220581, -0.4668991267681122, 0.5347238779067993], [0.10929392278194427, -0.7189592123031616, 0.2138674259185791, 0.09336549043655396, -0.9694100022315979, 0.09089364111423492, -0.19894342124462128, -0.6646284461021423, 0.5182543992996216, -0.14125113189220428, -0.023280944675207138, 0.4537659287452698, 0.23317848145961761, 0.16775482892990112, 0.30423465371131897, -1.2104302644729614, -0.2288079708814621, 0.5743191242218018, 0.016601990908384323, 0.07064855843782425, 0.1534961462020874, 0.05456387624144554, -0.1337868571281433, -1.3474406003952026, 0.202601358294487, -0.2176099568605423, 0.002141209552064538, -0.7702173590660095, 0.007201948668807745, 0.08523083478212357, -0.6167702674865723, -0.46736207604408264, -0.7353879809379578, -0.0036832718178629875, -0.49224385619163513, -0.6022120714187622, 0.3794240355491638, -1.0078405141830444, 0.148265078663826, -0.3084584176540375], [0.27396711707115173, -0.06450312584638596, -0.1068386510014534, -0.3613937795162201, -0.3460911810398102, 0.43776795268058777, -0.07463422417640686, 0.15845604240894318, 0.6749727129936218, 0.07469446212053299, -0.25820112228393555, 0.1274784803390503, 0.11356290429830551, -0.09077358990907669, -0.052604448050260544, 0.04464595019817352, 0.059476107358932495, -0.5551318526268005, 0.11731576919555664, 0.6723439693450928, 0.1020946279168129, 0.0012020686408504844, -1.4249154329299927, 0.5090441107749939, 0.1135287806391716, -0.4105808138847351, -0.03154763579368591, 0.01461208239197731, -0.024062227457761765, 0.4473145306110382, 0.08597935736179352, 0.46512576937675476, 0.10762026906013489, 0.10632238537073135, 0.32499250769615173, -0.32919755578041077, -0.18934248387813568, 1.1817048788070679, 0.361284077167511, -0.22537662088871002], [-0.14551033079624176, -0.20060177147388458, -0.1487170308828354, 0.7064628601074219, -0.2379387766122818, 0.35659950971603394, 0.30672475695610046, 0.05969340726733208, -0.2944515347480774, -0.1666584014892578, 0.42367035150527954, 0.4884271025657654, -0.7010428309440613, 0.0810837522149086, 0.19881777465343475, 0.20572464168071747, 0.23394961655139923, 0.00040148390689864755, -0.0433567576110363, -0.01536050345748663, -0.00031090795528143644, 0.4607499837875366, 1.1423509120941162, 0.23724262416362762, -0.3991999924182892, 0.27599769830703735, -0.030930163338780403, -0.08581644296646118, -0.29788443446159363, 0.22413551807403564, 0.1702468991279602, -0.4020538330078125, 0.13764521479606628, 0.43201103806495667, -0.7376145720481873, -0.5757603645324707, -0.44278404116630554, -0.023281246423721313, 0.47822579741477966, 0.06554627418518066], [-0.19420289993286133, -0.020759832113981247, -0.1664929986000061, 0.19089896976947784, -0.9669424891471863, -0.21802620589733124, 0.4059922695159912, 0.2425747513771057, -0.4738915264606476, 0.18654371798038483, -0.00201425445266068, 0.7551268935203552, -0.040389250963926315, 0.12342244386672974, -0.007111131213605404, -0.38408252596855164, 0.06632289290428162, 0.5307178497314453, 0.33641767501831055, 0.5840334892272949, -0.13361944258213043, 0.3578053414821625, 0.3632487952709198, -0.24587541818618774, 0.3141251504421234, -0.0409570075571537, 0.6034901142120361, -0.21071571111679077, 0.19490717351436615, 0.07184766978025436, -0.4446728825569153, -0.4630138576030731, 0.7261422276496887, 0.653558611869812, 0.018617955967783928, 0.051152635365724564, -0.25205233693122864, 0.29239988327026367, -0.2785407602787018, 0.2087090164422989], [0.5312556624412537, -0.20941221714019775, 0.13714025914669037, -0.038034357130527496, -0.03335154429078102, 0.02385561168193817, 0.04036545380949974, -0.07570545375347137, 0.9392170310020447, -0.24088825285434723, -0.2511257827281952, 0.22927646338939667, 0.1120852679014206, -0.08210450410842896, 0.5341822504997253, -0.03095238097012043, -0.19831483066082, -0.27425387501716614, 0.16878360509872437, -0.4093332290649414, -0.0944555327296257, -0.14862211048603058, -1.5798633098602295, -1.518934726715088, 0.046001631766557693, -0.07498540729284286, 0.020799731835722923, -0.31116101145744324, 0.011067919433116913, 0.13203074038028717, 0.37362396717071533, 0.17369769513607025, 0.5966413617134094, 0.21560020744800568, -0.3609364330768585, -0.18858450651168823, -0.4789167642593384, -0.326595664024353, -0.043338727205991745, -1.0942943096160889], [0.14072124660015106, -0.03714313730597496, 0.09006670117378235, -0.34801432490348816, -0.4767989218235016, -0.34634116291999817, 0.6709637641906738, 0.15579071640968323, -0.5551897287368774, 0.10650134086608887, 0.5440625548362732, -0.326068639755249, 0.24301962554454803, 0.39282965660095215, 0.03803648427128792, 0.8113933205604553, 0.0288418959826231, 0.017285145819187164, -0.23454472422599792, 0.15067625045776367, 0.37951338291168213, 0.23726105690002441, -0.7133597731590271, -0.32458946108818054, -0.5315686464309692, 0.03914116322994232, -0.6721619963645935, 0.16357257962226868, -0.30850499868392944, 0.5503098964691162, -0.7496957778930664, 0.02847636677324772, -0.7246648669242859, -0.09908203035593033, -0.4155634343624115, 1.1289817094802856, -0.05248650908470154, 0.047971926629543304, 0.31533029675483704, 0.02253580279648304], [-0.03970960155129433, -0.273580402135849, -0.14605388045310974, -0.19777266681194305, -0.39916229248046875, 0.08146373927593231, 0.5865618586540222, 0.33615049719810486, 0.48520195484161377, 0.09786292910575867, -0.24942918121814728, -0.5080134272575378, -0.18568535149097443, -0.04777724668383598, 0.4007057845592499, 1.366465449333191, 0.026194531470537186, -0.07710333168506622, 0.21588234603405, 0.6457540988922119, -0.21757632493972778, 0.1084461659193039, -0.5807182192802429, -0.3338353931903839, 0.18289606273174286, -0.12222537398338318, 0.03687233850359917, -0.14322102069854736, 0.07573918253183365, 0.11525772511959076, 0.2741047739982605, -0.3715944290161133, 0.52723628282547, 0.8825935125350952, -0.627754807472229, 0.41637110710144043, 0.12803904712200165, -0.5534849762916565, -0.15988746285438538, -0.006215219385921955], [0.1637282520532608, 0.3183364272117615, 0.05270987004041672, 0.1674058735370636, 0.7730168104171753, 0.5779574513435364, 0.4634273052215576, 0.5494990348815918, -0.18890851736068726, -0.0705457404255867, -0.28334227204322815, -0.5722153782844543, -0.6924484372138977, -0.2183811068534851, 0.07455004006624222, 0.03825577348470688, -0.24654483795166016, 0.46330735087394714, -0.5784644484519958, -0.3126436471939087, 0.06356482207775116, 0.06537815928459167, 1.1323875188827515, 0.31731951236724854, 0.38354939222335815, -0.31114405393600464, 0.17483870685100555, -0.6766877770423889, 0.8596354126930237, -0.06466852873563766, 0.8855130076408386, -0.917672872543335, 1.1590685844421387, 0.04796770587563515, 0.8529158234596252, -0.013972907327115536, 0.19756193459033966, -0.0835980549454689, -0.01209696102887392, 0.6688166260719299], [-0.11727000772953033, -0.05347246304154396, -0.2065560221672058, -0.13264842331409454, 0.27971139550209045, -0.06167512759566307, -0.1377657949924469, 0.1844356805086136, 0.14931565523147583, 0.5561410784721375, 0.17339342832565308, -0.13289038836956024, 0.2970159649848938, -0.20126725733280182, 0.22172270715236664, -0.06101991608738899, -0.43918752670288086, 0.4522012770175934, 0.45886465907096863, 0.029006777331233025, 0.2432260364294052, -0.07538039982318878, 0.9362971782684326, 0.034076809883117676, 0.36306026577949524, -0.28419584035873413, -0.43169188499450684, 0.1868060678243637, 0.5427398085594177, -0.3131459355354309, -0.20609496533870697, -0.4809302091598511, -0.07655217498540878, 0.027781398966908455, 0.03635242581367493, -0.09690939635038376, -0.1904343217611313, -0.06869375705718994, -0.4807342290878296, 0.39371854066848755], [0.31095442175865173, -0.6690009832382202, 0.26656338572502136, 0.10408759862184525, -0.8288943767547607, -0.5797723531723022, -0.6081109046936035, 0.8879345059394836, 0.08537303656339645, 0.13963639736175537, 0.3449814021587372, 0.0051611196249723434, 0.4145481288433075, -0.3828318119049072, 0.29701128602027893, -0.22840173542499542, 0.2853153347969055, 0.18863214552402496, 0.32813704013824463, -0.6384134292602539, 0.08803398907184601, 0.2959916591644287, -0.7398074865341187, -0.36077871918678284, -0.2439694106578827, 0.774882972240448, -0.3365872800350189, 0.1283438801765442, 0.1535186469554901, 0.27794182300567627, 0.16660435497760773, 0.5342148542404175, 0.035049088299274445, 0.03070124238729477, -0.02579321525990963, -0.1103256493806839, 0.12435421347618103, -0.46006253361701965, 0.303067147731781, -0.677314281463623], [0.15350094437599182, 0.5434694886207581, -0.10029399394989014, 0.17389154434204102, -0.3536539077758789, -0.6053146719932556, 0.07815603166818619, -0.26857897639274597, 0.3458733558654785, 0.2617412209510803, -0.0018484636675566435, -0.10145529359579086, -0.10844412446022034, -0.11285873502492905, 0.09525515884160995, -0.7734559178352356, 0.25552091002464294, -0.8579504489898682, -0.21227917075157166, 0.2983246445655823, 0.02882656827569008, 0.4042130708694458, -0.8652480840682983, -0.16141648590564728, -0.361210435628891, 0.19568300247192383, -0.8281409740447998, 0.24642913043498993, 0.142978236079216, 0.10927243530750275, -0.6876933574676514, 0.5456674098968506, -0.3638319671154022, -0.24742087721824646, -0.1278911530971527, -0.38271236419677734, 0.43730196356773376, 0.24350027740001678, 0.08413445204496384, -0.7908344864845276], [0.163217693567276, 0.05150918290019035, 0.0020622489973902702, 0.25746721029281616, 0.21885305643081665, 0.039083149284124374, -0.17070716619491577, 0.7040144801139832, -0.16817626357078552, 0.43776172399520874, 0.14277583360671997, 0.10340475291013718, -0.015292729251086712, 0.2503918409347534, 0.02638540044426918, -0.2903306782245636, -0.2835488021373749, -1.2602953910827637, 0.2598891854286194, -0.29380375146865845, 0.3116600513458252, -0.22917096316814423, -0.7532101273536682, 0.4038204550743103, 0.14755287766456604, -0.1454969197511673, -0.26127392053604126, -0.1217169538140297, -0.2831350266933441, 0.24202921986579895, -0.23181451857089996, 0.004414692986756563, -0.15840040147304535, -0.8791945576667786, 0.5800338983535767, -0.20974768698215485, -0.034645695239305496, 0.31643959879875183, -0.37784597277641296, -0.026330849155783653], [0.046984270215034485, -0.14171862602233887, 0.4034944772720337, 0.15851491689682007, 0.2346630096435547, -0.38280290365219116, 0.410667359828949, -1.5082786083221436, -0.61379075050354, 0.33360403776168823, 0.17952288687229156, -0.5009661316871643, -0.21126677095890045, -0.4905060827732086, 0.08125729858875275, -0.7646784782409668, 0.3783454895019531, 0.10520747303962708, 0.09301389008760452, -0.31671372056007385, 0.2547600269317627, -0.21316644549369812, 0.2559385597705841, 0.10967469215393066, -0.22050052881240845, 0.5284495949745178, -0.164229154586792, 0.20469257235527039, -0.9824734926223755, -0.5212132930755615, 0.3397006094455719, -0.9334018230438232, 0.25501084327697754, 0.07447028160095215, -0.46600985527038574, -0.452894002199173, 0.34662652015686035, -0.7220244407653809, 0.35718247294425964, -0.7251256108283997], [-0.11851226538419724, 0.4449019432067871, 0.01604209840297699, 0.1047503650188446, 0.5458307862281799, 0.9945711493492126, -0.18533116579055786, 0.2602657079696655, -0.023864664137363434, -0.5828409194946289, -0.38224682211875916, 0.15066803991794586, 0.0009684912511147559, -0.16154250502586365, -0.2590940594673157, -0.435393750667572, 0.00814999733120203, -0.5447717905044556, 0.04961147904396057, 0.10851804912090302, 0.06121303513646126, -0.07315411418676376, 1.0807970762252808, 0.40620219707489014, -0.23226165771484375, -0.1700790822505951, 0.09301266074180603, 0.8229148983955383, -0.024958889931440353, 0.28537169098854065, 0.1081312894821167, 0.40284743905067444, -0.05459466204047203, -0.1870802640914917, -0.3538359999656677, -0.21601857244968414, -0.22905482351779938, 0.43377602100372314, -0.07105203717947006, -0.0492592453956604], [0.40913403034210205, -0.22196044027805328, -0.1653173267841339, -0.05448155850172043, 0.11625659465789795, -0.09553312510251999, 0.2509571611881256, 0.06691492348909378, -0.22321636974811554, 0.337826669216156, 0.1423923820257187, 0.06968943774700165, -0.1664898842573166, -0.29798170924186707, 0.17167407274246216, 0.505251407623291, -0.20286071300506592, -0.7736865878105164, -0.2582854628562927, -0.88131183385849, 0.2086964249610901, -0.28211551904678345, -0.9614934921264648, -0.2814389765262604, -0.5627609491348267, 0.801335871219635, -0.06063280627131462, -0.6988185048103333, -0.49970895051956177, 0.08652160316705704, -0.026428112760186195, -0.5039789080619812, -0.3887469470500946, -0.1732875555753708, 0.7317725419998169, -0.6241462230682373, 0.4564265012741089, 0.06164141744375229, 0.07640796899795532, 0.3900059461593628], [-0.0393054373562336, 0.05932430177927017, -0.07196131348609924, 0.08008325099945068, 0.006561512593179941, -0.2972080111503601, -0.08451960235834122, -0.4421624541282654, -0.050552621483802795, -0.12998108565807343, -0.023794470354914665, 0.06717296689748764, 0.07910044491291046, 0.05233432352542877, -0.0391642190515995, 0.7184188365936279, 0.09121689200401306, 0.3277735710144043, -0.18155816197395325, 0.22253359854221344, 0.014066752977669239, -0.03372131288051605, -1.3524595499038696, -0.8713220953941345, 0.4872206747531891, -0.010911989025771618, 0.0893540158867836, 0.033395979553461075, -0.427474707365036, -0.09164824336767197, 0.18586453795433044, 0.323720782995224, 0.5831433534622192, 0.4800962805747986, -0.7207973599433899, -0.10233790427446365, -0.06700392067432404, -0.5359421968460083, 0.0049911909736692905, -0.5690931081771851], [0.1362868696451187, 0.2782439589500427, -0.2912692129611969, 0.15137548744678497, 0.13713887333869934, 0.33202627301216125, 0.35217198729515076, 0.09674564749002457, 0.5542541742324829, 0.28472164273262024, 0.09056954085826874, -0.4256378412246704, -0.34686434268951416, -0.3396044671535492, -0.17655536532402039, 0.6296719312667847, -0.5119704604148865, 0.8008862137794495, -0.0469694510102272, -0.11303913593292236, 0.333605021238327, -0.46636661887168884, 1.5625728368759155, -0.11410730332136154, 0.35034459829330444, -0.03479232266545296, -0.24071481823921204, -0.2537790834903717, -0.632569432258606, -0.20224858820438385, 0.1272682398557663, -0.3115125894546509, -0.7856165170669556, 0.030293118208646774, 0.5031228065490723, -0.31157588958740234, 0.21872442960739136, 0.3606695532798767, -0.1421390026807785, 0.2730846107006073], [0.37595275044441223, -0.0738864317536354, 0.2448548823595047, 0.017568491399288177, -0.036649007350206375, 0.5208644866943359, 0.0016445079818367958, -0.05233573913574219, 0.10340748727321625, -0.25210919976234436, 0.004196449648588896, -0.1354997158050537, -0.2832285463809967, -0.6676154136657715, 0.14797905087471008, -0.3024649918079376, 0.3453412353992462, -0.17219428718090057, -0.2033122330904007, -0.582768976688385, 0.09618823230266571, 0.219556525349617, 1.0056051015853882, 0.015654999762773514, 0.30699288845062256, -0.09023410081863403, 0.0706663578748703, -0.4864446520805359, -0.0478115938603878, -0.2501373589038849, 0.03740957751870155, 0.7765558958053589, 0.24464569985866547, -0.24741899967193604, -0.33275848627090454, -0.08207195997238159, -0.34502092003822327, 0.08724691718816757, 0.08964738249778748, 0.1856512725353241], [0.16617104411125183, 0.2284904569387436, 0.028974393382668495, -0.3162558376789093, -0.3974866569042206, 0.12333023548126221, -0.46075496077537537, 0.02167658880352974, -0.0907309427857399, 0.1431008130311966, -0.4661516845226288, -0.3275601863861084, -0.04627808555960655, -0.09156870096921921, 0.29000207781791687, 0.41134509444236755, -0.20343317091464996, -0.23742713034152985, 0.3226293623447418, -0.436806857585907, 0.1922272890806198, 0.08180450648069382, -0.20489224791526794, 0.08590012043714523, -0.047680292278528214, 0.2807380259037018, 0.025966757908463478, 0.23332618176937103, 0.4172830283641815, 0.19003911316394806, -0.27713921666145325, -0.5818046927452087, 0.4473690688610077, 0.06729920208454132, 0.2680942416191101, -0.2043701559305191, 0.44151219725608826, 0.09323669970035553, 0.43579527735710144, 0.8985933661460876], [-0.13925357162952423, 0.5247565507888794, -0.07353800535202026, 0.2176535278558731, -0.346218466758728, 0.19144588708877563, -0.3992387652397156, 0.5529456734657288, 0.061501096934080124, -0.2598295211791992, 0.1948603391647339, -0.02745712921023369, 0.22125068306922913, 0.2590927481651306, -0.09774243831634521, 0.15901115536689758, 0.03362736478447914, -0.5399208664894104, 0.16293194890022278, -0.08627913147211075, -0.3724321722984314, 0.5141236782073975, 0.9840670824050903, -0.2895185649394989, -0.44710099697113037, -0.15630976855754852, 0.5212294459342957, 0.1197841465473175, -0.1584995537996292, 0.1543305665254593, 0.12415935099124908, -0.23324964940547943, -0.03282053768634796, -0.035024017095565796, 0.32581400871276855, -0.0805419459939003, -0.12393174320459366, -0.08040651679039001, 0.21953023970127106, -0.06872627884149551], [-0.0558890774846077, 0.06516747921705246, -0.20274634659290314, 0.17453645169734955, -0.6156598925590515, 0.39716386795043945, 0.3818051218986511, -0.0830654501914978, -0.5662497282028198, 0.4921853244304657, 0.17096297442913055, 0.38751858472824097, -0.03896551579236984, -0.3288511633872986, 0.21776476502418518, -0.10590618848800659, 0.2997894287109375, -0.4993623197078705, -0.1356336623430252, -0.1399897038936615, -0.08935952186584473, 0.14290638267993927, 0.08280876278877258, -0.47245165705680847, -0.5281363725662231, 1.0800013542175293, -0.47470831871032715, 0.31359267234802246, -0.2474273294210434, -0.16107389330863953, -0.22070907056331635, 0.6511194705963135, -0.5036540031433105, -0.537471354007721, -0.12705078721046448, -0.0012645937968045473, -0.027276189997792244, -0.02700541354715824, 0.18670335412025452, -0.5326347947120667], [-0.053755536675453186, -0.2761314809322357, 0.06569021940231323, -0.13319160044193268, 0.4129936099052429, -0.07309041917324066, -0.09045892208814621, 1.3279452323913574, 0.3872009217739105, -0.11539281904697418, -0.4050629138946533, 0.4748128652572632, 0.07243616878986359, -0.14022937417030334, -0.18995614349842072, 1.4836022853851318, 0.32945021986961365, -0.48178309202194214, -0.09228122234344482, -0.3083809018135071, -0.3126847743988037, 0.1535981297492981, -0.7546148896217346, 0.28135114908218384, -0.33825498819351196, 0.27232488989830017, 0.07581166177988052, 0.17250607907772064, -0.3645778000354767, -0.011596815660595894, 0.1218249574303627, -0.009973956272006035, 1.8715603351593018, -0.45654410123825073, 0.26258566975593567, -0.4665589928627014, -0.04173982888460159, 0.32736799120903015, -0.06612320989370346, -0.2361687272787094], [0.0731518566608429, -0.5830127000808716, -0.07026160508394241, 0.30110183358192444, -0.2735227346420288, -0.272829532623291, 0.14514882862567902, -0.9282425045967102, -0.014198042452335358, 0.20614124834537506, 0.013066976331174374, -0.11819136142730713, 0.3431347608566284, -0.05526108667254448, 0.11304855346679688, 0.2229127734899521, 0.0936846137046814, -0.060706976801157, 0.13137507438659668, -1.1606214046478271, 0.467923104763031, 0.08416110277175903, -0.05556938797235489, -0.3366818428039551, 0.19748158752918243, -0.07973539084196091, 0.11440539360046387, 0.040208786725997925, 1.0072574615478516, 0.490278035402298, 0.03784613683819771, 0.08724937587976456, -0.4053395688533783, -0.3791337013244629, -0.3434212803840637, -0.3786529302597046, -0.2684156596660614, 0.332388311624527, 0.07184448093175888, -0.16704298555850983], [0.15012018382549286, -0.48958736658096313, -0.021459117531776428, 0.21345727145671844, -0.4026562571525574, 0.8053207993507385, -0.2951347529888153, 0.014604303054511547, 0.44911086559295654, -0.05139872059226036, 0.0831592008471489, -0.145406112074852, -0.1615467667579651, 0.019737856462597847, -0.04680633544921875, 0.11588899791240692, 0.13204874098300934, -0.20782595872879028, 0.07764267921447754, 0.31780335307121277, 0.01812596060335636, -0.03313758969306946, -1.6197974681854248, 0.33420923352241516, 0.037525225430727005, -0.024980761110782623, -0.8171988725662231, -0.38437509536743164, -0.44761988520622253, -0.20253440737724304, 0.3977137804031372, -0.5437779426574707, 0.2459874004125595, 0.551098644733429, -0.6292089819908142, -0.05376460403203964, 0.37086689472198486, -0.2905419170856476, -0.2874293923377991, 0.03474527969956398], [-0.2857871353626251, -0.1179715022444725, 0.3315999507904053, 0.2003648430109024, -0.22438009083271027, 0.7628776431083679, 0.5753029584884644, -0.09112190455198288, 0.04868966341018677, -0.4656450152397156, 0.4701480567455292, -0.003824518760666251, -0.05374858155846596, -0.06560114026069641, -0.2013346403837204, 0.8745971918106079, -0.18163201212882996, -0.23490245640277863, 0.22012102603912354, 0.2519770562648773, -0.328226238489151, -0.04316968098282814, 0.5532810688018799, -0.20906946063041687, 0.031235506758093834, -0.36716166138648987, 0.7937492728233337, -0.20110397040843964, 0.15851232409477234, -0.15191352367401123, -0.20712219178676605, -0.49455276131629944, -0.5425077080726624, 0.1463163197040558, 0.08461465686559677, 0.3818698227405548, -0.15962621569633484, 0.3479192852973938, 0.01854335516691208, 0.5687941312789917], [0.001046215184032917, -0.6095377206802368, -0.11934278905391693, 0.1511073112487793, -0.06184392422437668, 0.07400354743003845, -0.29578274488449097, -0.2899082601070404, -0.21602590382099152, 0.3762357532978058, -0.06414014101028442, -0.12701061367988586, -0.24573956429958344, -0.258400022983551, -0.4096422493457794, 0.16702304780483246, 0.33285874128341675, -1.1306219100952148, -0.03627739101648331, 0.03705546259880066, 0.1217910423874855, 0.12187054008245468, -0.6809229850769043, 0.00284506450407207, -0.4261649549007416, -0.2362406849861145, 0.2575744092464447, -0.2688106596469879, -0.03816285729408264, 0.10823734104633331, -0.37787148356437683, 0.6361956000328064, 0.3329372704029083, 0.017614148557186127, -0.17907001078128815, -0.2957981824874878, -0.01547425426542759, 0.510129988193512, -0.38062170147895813, -0.43169721961021423], [0.17319908738136292, 0.23923397064208984, -0.053988128900527954, -0.022894226014614105, -0.1613955944776535, -0.20363201200962067, 0.05221783369779587, 0.20862700045108795, 0.32222679257392883, 0.02861475758254528, 0.08121493458747864, 0.16071158647537231, 0.07271604984998703, -0.19456689059734344, 0.061152756214141846, -0.8511456847190857, 0.047509659081697464, 1.3139407634735107, 0.012901588343083858, 1.01715087890625, -0.10423212498426437, -0.1786404252052307, 0.49739259481430054, -0.24138660728931427, -0.08541765809059143, 0.038392823189496994, 0.032605044543743134, -0.2692948877811432, -0.17986011505126953, -0.12520384788513184, 0.40824538469314575, -0.3092568516731262, -0.28672102093696594, 0.007813842967152596, 0.2779299020767212, -0.17578637599945068, 0.14898839592933655, -0.5434955954551697, 0.05943161994218826, -1.0134069919586182], [0.12193245440721512, -0.2784973382949829, 0.18730148673057556, 0.3157220184803009, 0.23550881445407867, -0.4583122134208679, -0.10848687589168549, -0.1960575133562088, -0.4895596206188202, 0.24535204470157623, 0.1858529895544052, 0.02005917765200138, -0.14743323624134064, 0.0032220412977039814, -0.08223308622837067, -0.7105423808097839, 0.17500659823417664, 0.6829090118408203, 0.08384954929351807, -0.07625088840723038, -0.1481667011976242, -0.25131651759147644, 0.5226454734802246, -0.45074960589408875, -0.09238656610250473, 0.5270023345947266, -0.19509056210517883, -0.13076944649219513, 0.11080088466405869, 0.05032527074217796, -0.029103262349963188, -0.2226114124059677, -0.09484503418207169, 0.22206534445285797, 0.020366065204143524, 0.06679810583591461, -0.26477164030075073, -0.8316283822059631, -0.17954783141613007, -0.209905743598938], [0.11423663794994354, -0.34754109382629395, -0.11230111867189407, 0.05370952561497688, -0.16990838944911957, -0.040326252579689026, 0.2846415340900421, -0.5260699391365051, -0.10017146170139313, 0.11622026562690735, -0.14310695230960846, 0.1014305129647255, -0.26359647512435913, -0.17368270456790924, -0.2526286542415619, -0.333901584148407, 0.10784056037664413, -1.1712068319320679, 0.15268298983573914, 0.9157580733299255, -0.008794626221060753, 0.12313558161258698, -0.7813266515731812, -0.017823386937379837, -0.008755967020988464, 0.14075058698654175, -0.02745785005390644, 0.31139642000198364, 0.5436636805534363, 0.005384932737797499, -0.3506081700325012, 0.63681960105896, 0.3228166103363037, 0.3403230905532837, 0.3881074786186218, -0.3577413260936737, 0.11528410762548447, 0.2876945436000824, -0.28327587246894836, 0.46176767349243164], [0.05877619981765747, 0.04625584930181503, 0.2346552163362503, -0.1887417882680893, -0.6437855362892151, -0.45546868443489075, 0.5615265965461731, 0.47536250948905945, 0.7286617755889893, -0.26737502217292786, -0.167991504073143, -0.4803185760974884, 0.24359506368637085, 0.49584105610847473, 0.7000895738601685, 0.36275702714920044, 0.20509935915470123, 0.9594829082489014, -0.12565094232559204, 0.4176066517829895, -0.5733931064605713, 0.22316595911979675, 0.9823144674301147, 0.41633710265159607, 0.4543875455856323, -0.024193312972784042, -0.38614147901535034, -0.3665313422679901, 0.32734251022338867, 0.09494777023792267, 0.42271870374679565, -0.034662168473005295, 0.5251765251159668, 0.7806925177574158, -0.2249884158372879, -0.7512459754943848, -0.5805680155754089, 0.01416841708123684, -0.1103878766298294, 0.03203580528497696], [-0.1398940533399582, 0.05803199112415314, 0.7722345590591431, -0.2964586317539215, 0.6258188486099243, 0.17948894202709198, 0.12113828957080841, -1.0446009635925293, -0.15721331536769867, 0.21178984642028809, -0.30747100710868835, 0.3945062756538391, -0.5528894066810608, 0.05599819868803024, 0.23069381713867188, -0.4797724485397339, -0.059611015021800995, 0.997625470161438, 0.07873948663473129, -0.5280424356460571, 0.23605327308177948, -0.4273425340652466, 1.1918405294418335, 0.14509285986423492, -0.298382967710495, -0.27335160970687866, -0.2930240333080292, -0.5559846758842468, 0.5542786121368408, -0.5248059630393982, 0.21852584183216095, -0.10879439115524292, 0.9969258308410645, 0.17548003792762756, -0.21305252611637115, 0.054100099951028824, 0.3591819405555725, -1.1405131816864014, -0.2142745852470398, 0.07728227227926254], [-0.1074109598994255, -0.09094294905662537, 0.19598153233528137, 0.05584217607975006, -0.24447213113307953, 0.31698140501976013, 0.2667663097381592, 1.4293469190597534, -0.052206192165613174, -0.25753074884414673, -0.0013582505052909255, 0.23127149045467377, -0.2053155153989792, 0.5499317646026611, 0.3659486770629883, -0.008103517815470695, -0.30759748816490173, -1.062584400177002, 0.011066528037190437, 0.3892383277416229, -0.2082962542772293, -0.03974654898047447, -1.5506503582000732, 0.3051010072231293, 0.18636195361614227, -0.09229732304811478, -0.2342560887336731, 0.3226279318332672, 0.7819963097572327, 0.12595213949680328, -0.06320666521787643, -0.08681293576955795, 0.3845469653606415, -0.11902448534965515, 1.3006614446640015, -0.44750162959098816, -0.13309572637081146, 0.21106268465518951, 0.17503772675991058, 0.287471204996109], [-0.19100908935070038, -0.29713210463523865, -0.07392282038927078, -0.2896329164505005, 0.35076335072517395, 0.12369327247142792, -0.8075456023216248, 0.3715095520019531, 1.0841764211654663, 0.06514371931552887, -0.07447952032089233, 0.20400220155715942, -0.5327580571174622, -0.5863096117973328, 0.09529795497655869, 0.03145557641983032, -0.21880382299423218, 1.0607305765151978, -0.2524612247943878, -0.16835273802280426, 0.39421164989471436, -0.700402021408081, 0.48285719752311707, 0.6171432733535767, 0.2515735626220703, -0.32562389969825745, -0.30851757526397705, 0.1808016300201416, 0.22338293492794037, -0.1149294376373291, 0.3013104200363159, -0.42094147205352783, -0.006937897764146328, 0.9349735379219055, -0.14828602969646454, -0.040039654821157455, 0.10309383273124695, -0.055826134979724884, -0.48130348324775696, 0.4858275055885315], [0.13066543638706207, 0.056246280670166016, -0.24354244768619537, -0.1598600596189499, 0.16818810999393463, -0.21371300518512726, -0.19067074358463287, 0.45299404859542847, -0.11823970824480057, 0.003720650216564536, -0.18100756406784058, -0.1746641993522644, -0.3779756724834442, 0.12381864339113235, -0.16214662790298462, -1.0671268701553345, 0.35803624987602234, 0.11678849160671234, -0.021074628457427025, 0.4498382806777954, 0.010998326353728771, 0.061927638947963715, 0.9449463486671448, 0.2741835415363312, -0.45305460691452026, 0.1201595813035965, 0.21560001373291016, -0.3249838054180145, 0.9200220704078674, 0.010575681924819946, -0.32757654786109924, -0.30475229024887085, 1.2476009130477905, -0.02473391406238079, -0.4693504571914673, 0.43337389826774597, -0.04031491279602051, 0.0632748156785965, -0.3541485071182251, -0.3175123929977417], [-0.021122422069311142, -0.12690162658691406, -0.40596306324005127, -0.11727000027894974, 0.2918098270893097, 0.19129478931427002, -0.21362756192684174, -0.3305310308933258, -0.3318767547607422, 0.20540080964565277, -0.4746227264404297, 0.021522406488656998, -0.34400323033332825, -0.2694268524646759, 0.10413353145122528, -0.1556011140346527, -0.441069632768631, 1.3925400972366333, 0.22294186055660248, 0.652799665927887, 0.28783169388771057, -0.20781263709068298, 1.8067851066589355, -0.16369174420833588, 0.35604578256607056, 0.4533331096172333, 0.8910866975784302, -0.17690685391426086, -0.20878924429416656, -0.2783662676811218, -0.29785287380218506, -0.34947967529296875, -0.5999987721443176, 0.2251470386981964, 0.6180742979049683, -0.102650485932827, 0.052731286734342575, -0.2469998449087143, 0.03270253911614418, 0.3446357548236847], [-0.21293064951896667, 0.7754102945327759, 0.2387835681438446, -0.1278141438961029, 0.0450737290084362, -0.0508936308324337, 0.05074131861329079, -0.35884588956832886, -0.3199922740459442, -0.19012267887592316, 0.013376680202782154, 0.16485968232154846, 0.14947637915611267, 0.31049206852912903, 0.49682092666625977, -0.035718269646167755, 0.5267219543457031, 0.014354005455970764, 0.21745124459266663, -0.8980162143707275, 0.32162368297576904, 0.0330573134124279, -0.6195523738861084, -0.130477637052536, -0.14092083275318146, -0.41203776001930237, -0.2927328050136566, 0.2473643720149994, 0.19608600437641144, -0.016708360984921455, -0.366847425699234, -0.5477324724197388, 0.5509471893310547, -0.6212129592895508, -0.4799412488937378, 0.3493750989437103, -0.10804016888141632, -0.18882396817207336, -0.17937421798706055, -0.5368801355361938], [-0.09135852009057999, -0.22692140936851501, -0.012379271909594536, 0.18549270927906036, -0.16434603929519653, 0.4000861942768097, 0.11057557165622711, 0.21569612622261047, -0.00622596824541688, -0.10965677350759506, -0.017779111862182617, 0.20978446304798126, -0.11106975376605988, 0.16320446133613586, -0.17324437201023102, 0.3708834946155548, 0.14136329293251038, -0.07685474306344986, 0.13916708528995514, -0.357439786195755, -0.2782372832298279, 0.24449653923511505, 0.32481619715690613, -0.5207361578941345, -0.12372303754091263, 0.191747784614563, 0.19460631906986237, 0.4245508909225464, -0.6315689086914062, -0.02153116837143898, 0.038688141852617264, -0.3649764955043793, -0.19849784672260284, 0.17685659229755402, -0.37806281447410583, -0.2941340208053589, 0.17574259638786316, 0.1119842529296875, 0.1961761713027954, -0.04348326846957207], [-0.17957542836666107, -0.15506750345230103, -0.06297679245471954, -0.3592820167541504, 0.23628222942352295, 0.2956393361091614, 0.3047865033149719, -0.05078345537185669, 0.2390521913766861, -0.45414531230926514, -0.5123776793479919, -0.17083889245986938, -0.007144450675696135, -0.32437649369239807, -0.2847290635108948, 0.5112950205802917, 0.1393718123435974, 0.8265878558158875, -0.47759726643562317, 0.05760838836431503, 0.2527620196342468, 0.06444783508777618, 0.9887505769729614, -0.3850850462913513, -0.2803538143634796, -0.5024135112762451, 0.4529311954975128, 0.37239283323287964, 0.2440391182899475, 0.5510830879211426, 0.22199805080890656, 0.258160263299942, 0.4140319526195526, -0.1529557704925537, 0.9823285341262817, -0.0607500858604908, -0.021535463631153107, 0.6431058645248413, 0.5171856880187988, 0.5980908274650574], [0.10109218209981918, -0.1682158261537552, 0.1693374067544937, 0.09200955927371979, -0.06698119640350342, -0.04444953426718712, -0.055986665189266205, -0.7126877307891846, 0.390063613653183, -0.19746685028076172, 0.2511928379535675, -0.12426522374153137, -0.40372028946876526, 0.3281397521495819, 0.287073016166687, -0.7006468176841736, 0.14791491627693176, 0.12196847796440125, 0.4975932836532593, -0.6315053701400757, 0.22987841069698334, 0.057139914482831955, -1.478546142578125, 0.5137016177177429, -0.14358682930469513, 0.37676453590393066, -0.6251193881034851, -0.29236555099487305, 0.11188896745443344, -0.2775663733482361, 0.014567711390554905, -0.1009693592786789, 0.5841027498245239, -0.23151221871376038, -2.0233983993530273, 0.09120213240385056, 0.43726474046707153, -0.5891762375831604, 0.4542897641658783, -0.6643080711364746], [-0.02258346416056156, -0.0807904526591301, -0.11456374078989029, -0.26803112030029297, -0.14385341107845306, 0.025267383083701134, -0.13622064888477325, 0.21801583468914032, 0.096280038356781, 0.290363609790802, -0.746390700340271, 0.15691141784191132, -0.05391230434179306, 0.023340759798884392, -0.0545695461332798, 0.3247829079627991, 0.326297402381897, 0.5694429874420166, -0.4453508257865906, 0.2891988754272461, -0.15901155769824982, -0.1959691196680069, 0.1653401255607605, 0.054651401937007904, -0.03626268357038498, -0.7280615568161011, 0.5118743181228638, -0.1864665448665619, 0.16988028585910797, -0.1409173160791397, 0.412943035364151, 0.22029370069503784, 0.9535360932350159, 0.8831882476806641, 0.08811942487955093, -1.3353601694107056, -0.1935068815946579, 0.2546047270298004, 0.04905049875378609, 0.176319882273674], [0.1074623391032219, 0.4461468756198883, -0.003219249192625284, -0.014125846326351166, -0.34685322642326355, -0.571018636226654, 0.04999405890703201, -0.6638944149017334, 0.18469126522541046, 0.07950666546821594, 0.13285484910011292, 0.08139687031507492, 0.05181936174631119, -0.07251299172639847, 0.1901809573173523, -0.5029951333999634, 0.1810629516839981, -0.07250837981700897, -0.10429039597511292, -0.8055850267410278, 0.11995752155780792, 0.048618268221616745, -0.7990061640739441, 0.21612723171710968, -0.15509378910064697, 0.1233988106250763, 0.19966405630111694, 0.13508692383766174, 0.3335145115852356, 0.07138460874557495, -0.754692554473877, 0.28897935152053833, -0.7590295076370239, 0.007641025818884373, 0.4294704794883728, 0.01361415907740593, 0.04740307480096817, -0.02106449566781521, 0.14780506491661072, -0.6173717975616455], [-0.1490015834569931, 0.2922324538230896, -0.05250917747616768, -0.2161845713853836, -0.056786082684993744, 0.17028293013572693, -0.6396116018295288, 0.45958197116851807, 0.361725777387619, -0.27058741450309753, 0.4691871702671051, 0.2544865608215332, -0.05644796043634415, 0.07125630229711533, 0.42057549953460693, 0.8651207685470581, 0.2740824818611145, -0.8383769392967224, -0.3125741481781006, -0.3177638649940491, -0.29032063484191895, 0.4366770088672638, -0.8486083149909973, 0.17803075909614563, -0.3802832067012787, 0.06407509744167328, -0.063398078083992, -0.37311169505119324, 0.02685023844242096, 0.32227882742881775, 0.08610072731971741, 0.10174047946929932, 0.9010417461395264, -0.37234142422676086, 0.39297306537628174, -0.10443844646215439, 0.15229827165603638, 0.14638151228427887, -0.2180471569299698, 0.3632996380329132], [-0.1378931850194931, 0.6314784288406372, -0.022895509377121925, -0.4373900890350342, -0.0627264454960823, 0.3003677427768707, -0.3419564664363861, -0.43886512517929077, -0.787407398223877, 0.33166810870170593, 0.11711964756250381, 0.38611239194869995, -0.006693594623357058, -0.15786775946617126, -0.29039931297302246, -0.3002079725265503, -0.26660650968551636, -0.3479462265968323, -0.17599546909332275, 0.11183400452136993, -0.18948043882846832, -0.12727861106395721, 0.1392700970172882, -0.9346456527709961, -0.06066042184829712, -0.11803168058395386, 0.4532134234905243, 0.20139093697071075, 0.2731306254863739, 0.07244035601615906, 0.3700537085533142, 0.7452833652496338, 0.49996134638786316, -0.1723637580871582, -0.38926225900650024, 0.5255453586578369, 0.572687566280365, 0.13507960736751556, -0.27388107776641846, -0.05651714652776718], [-0.20951789617538452, -0.034014467149972916, -0.1811119168996811, -0.4812473952770233, -0.2826389968395233, 0.9468681216239929, 0.2383381724357605, -0.39881521463394165, 0.6863155364990234, 0.1852552741765976, -0.29708075523376465, -0.10917232930660248, 0.49350467324256897, 0.11087294667959213, -0.2271331399679184, -0.5274747610092163, -0.3035425543785095, -0.7919854521751404, 0.25934457778930664, -0.355960875749588, -0.2184181660413742, -0.31641876697540283, 0.35119345784187317, -0.004901435691863298, -0.22643080353736877, 0.020110609009861946, 0.3930138051509857, -0.2162209153175354, -0.30350130796432495, -0.1514311134815216, 0.1941591203212738, 0.6273922920227051, -0.08217331767082214, -0.0053076958283782005, 0.26924723386764526, 0.2723781168460846, -0.03632441535592079, 0.3492662310600281, 0.8717203736305237, 0.260323166847229], [0.12342337518930435, 0.1153753325343132, -0.15929947793483734, -0.3128538131713867, 0.19404901564121246, 0.54343181848526, 0.14021387696266174, -0.6178874969482422, -0.2544523775577545, -0.15021350979804993, 0.061606280505657196, 0.6032245755195618, -0.1577407717704773, -0.08706508576869965, 0.1310402899980545, 0.3825213313102722, 0.2214633971452713, -0.40909311175346375, 0.21050183475017548, -0.42104393243789673, 0.2663324475288391, 0.6079906821250916, 0.573009192943573, 0.5169675350189209, 0.2159375697374344, -0.7385982871055603, 0.3369525372982025, 0.5719908475875854, -0.30514538288116455, -0.46872058510780334, 0.3254784643650055, -0.23970866203308105, 0.8166149854660034, 0.4016202390193939, 0.5454419851303101, 0.3431953191757202, -0.5639689564704895, 0.5627966523170471, -0.37432488799095154, -0.2346668243408203], [0.004520288202911615, -0.9857839941978455, -0.0847296193242073, 0.013599442318081856, 0.09010577201843262, -0.7421085238456726, 0.04469895735383034, -0.3208955228328705, 0.7604910135269165, 0.38480237126350403, 0.2618355453014374, -0.5424810647964478, -0.16862398386001587, 0.028488272801041603, 0.5006182193756104, -1.0414332151412964, -0.2665626108646393, 0.16893355548381805, 0.48182588815689087, 0.3394632935523987, 0.43889477849006653, 0.3569965362548828, -0.7519312500953674, -0.3936488926410675, 0.48980557918548584, 0.10070013999938965, -0.46861448884010315, -0.5902966260910034, -0.37907981872558594, -0.2803778350353241, 0.1889931559562683, 0.27646830677986145, 0.02486773394048214, 0.16587737202644348, -0.09950067102909088, -0.651466429233551, 0.054418694227933884, -0.3086220324039459, 0.09057486057281494, 0.20693008601665497], [-0.17090703547000885, 0.18332232534885406, 0.06189017370343208, 0.22736378014087677, -0.0949263870716095, -0.0010970958974212408, -0.05205908790230751, 0.3043883442878723, -0.11548933386802673, 0.2408885508775711, -0.16041338443756104, 0.33283790946006775, 0.18020020425319672, 0.18887187540531158, 0.0898740291595459, 0.43478327989578247, -0.13551825284957886, -0.9160295128822327, 0.442144513130188, -0.838799774646759, 0.28832411766052246, 0.025245780125260353, -0.8389097452163696, 0.4447813630104065, -0.4033958315849304, 0.1331821084022522, -0.48236092925071716, -0.5919869542121887, -0.6602431535720825, 0.5019820928573608, 0.7475263476371765, 0.32777154445648193, -0.11918509751558304, -0.5103005170822144, -0.17337098717689514, 0.033391378819942474, -0.25263842940330505, -0.022157225757837296, 0.16457270085811615, -0.410409539937973], [0.47985321283340454, -0.32601532340049744, -0.36170077323913574, -0.5018007159233093, -0.40366336703300476, 1.5611647367477417, -0.30361059308052063, 0.5183831453323364, -0.028616387397050858, 0.1200244203209877, 0.18176567554473877, 0.16968823969364166, -0.1317431628704071, 0.20059391856193542, 0.34320366382598877, -0.07452747970819473, -0.5438721179962158, -0.9445977210998535, -0.027008889243006706, 0.13473612070083618, 0.06478604674339294, -0.39655041694641113, -1.5332403182983398, 0.07042130827903748, 0.30442142486572266, 0.43681442737579346, 0.15429140627384186, -0.2181168645620346, -0.08572156727313995, -0.02245202101767063, -0.16244813799858093, 0.5116572380065918, 0.4122399091720581, -0.01951516419649124, 0.2339712679386139, -0.23167960345745087, 0.3916860818862915, 0.701008677482605, 0.2953677177429199, 0.1233057752251625], [-0.0009788054740056396, 0.1558155119419098, 0.06941675394773483, 0.02836611494421959, 0.18672989308834076, 0.2240709513425827, -0.13283401727676392, 0.3426867425441742, 0.0693337619304657, -0.075996533036232, 0.07786665111780167, 0.11670643836259842, -0.07941874116659164, 0.01618531346321106, -0.03474888578057289, -0.10440763086080551, 0.1980290561914444, -0.2585873305797577, -0.07826530188322067, -0.2519850730895996, -0.01669280417263508, 0.16346512734889984, 0.1337907612323761, -0.3595024645328522, 0.023180145770311356, -0.010904916562139988, 0.10633981227874756, -0.012303426861763, -0.6240572333335876, -0.05474521592259407, -0.2415144145488739, 0.14217689633369446, -0.515219509601593, -0.06379691511392593, 0.05368456989526749, -0.15573281049728394, -0.0378996804356575, 0.554044783115387, 0.1300424337387085, -0.4995236098766327], [-0.16625717282295227, 0.44790297746658325, 0.16627471148967743, -0.18915128707885742, -0.07995779812335968, 0.23081310093402863, 0.6077471971511841, -0.27843284606933594, 0.12892599403858185, -0.3584743142127991, 0.34179967641830444, 0.2800397574901581, 0.15013304352760315, -0.03795551136136055, -0.21484053134918213, 0.09492827951908112, 0.043071843683719635, -0.6171538829803467, -0.08857683837413788, -0.6322782635688782, -0.11495218425989151, 0.3418025076389313, -1.0791575908660889, 0.6482797861099243, 0.3767930567264557, 0.06607910245656967, 0.4102288782596588, 0.0894087702035904, 0.6129172444343567, -0.06331741064786911, 0.14503318071365356, -1.035593032836914, 0.09848426282405853, 0.25925686955451965, 0.12239925563335419, 0.0313400998711586, -0.49137067794799805, -0.17404474318027496, 0.30208203196525574, 0.6539874076843262], [-0.23000529408454895, 0.2595856189727783, -0.1028645932674408, -0.06839486956596375, 0.10906235128641129, 0.528796911239624, -0.06474241614341736, 0.4663230776786804, -0.23263117671012878, -0.5107863545417786, 0.18875452876091003, 0.3242749273777008, 0.08234432339668274, 0.08872129023075104, -0.08375458419322968, 0.5570451617240906, 0.34424570202827454, -0.751218318939209, 0.35856086015701294, -0.06102219969034195, -0.34734877943992615, 0.0007824312779121101, 0.44724950194358826, 0.45893311500549316, -0.42877840995788574, -0.0028500023763626814, -0.14172838628292084, -0.2087693214416504, 0.33765894174575806, 0.5700346231460571, 0.02353820577263832, 0.19115465879440308, 0.13517597317695618, -0.2953531742095947, -0.05542444810271263, -0.5855709314346313, 0.07556509971618652, -0.4114871323108673, 0.02351807802915573, 0.34526753425598145], [-0.017184888944029808, 0.11765220761299133, -0.27521154284477234, -0.15018485486507416, -0.486458957195282, -0.5974009037017822, 0.6770467758178711, 0.8588882684707642, 0.0905468761920929, 0.12933403253555298, 0.13295096158981323, 0.027438344433903694, 0.05449310317635536, 0.1376543790102005, 0.21291229128837585, 1.5931988954544067, 0.43512120842933655, -0.02892523631453514, 0.04064082354307175, -0.3777504861354828, -0.07066710293292999, -0.08151504397392273, -0.2571249306201935, -0.06394585967063904, -0.4356031119823456, -0.17010878026485443, -0.16770309209823608, 0.3082702159881592, 0.9300073981285095, 0.017453402280807495, -0.1107604131102562, 0.12258391082286835, 0.28275224566459656, -0.34926995635032654, -0.3107205033302307, -0.2984256446361542, 0.2627461552619934, 0.6750118732452393, -0.08636045455932617, -0.6891500353813171], [-0.11610323935747147, -0.24212536215782166, 0.008000588975846767, 0.21775388717651367, 0.060736529529094696, -0.4948747158050537, 0.1413443386554718, 0.03989051282405853, -0.06788359582424164, -0.17956407368183136, 0.05304356664419174, -0.004992218688130379, 0.17691698670387268, -0.10255830734968185, 0.07748963683843613, -0.09982843697071075, 0.013323182240128517, 0.36807602643966675, 0.21782764792442322, -0.13258220255374908, 0.010717169381678104, -0.19452740252017975, -0.02494191564619541, 0.4509090483188629, 0.3722357451915741, -0.144779235124588, -0.18836553394794464, -0.041039302945137024, 0.34213557839393616, 0.19218550622463226, 0.4555775821208954, -0.0967927798628807, -0.1540433019399643, 0.46867766976356506, -0.21816368401050568, -0.18365813791751862, -0.19561760127544403, -0.18989551067352295, -0.11125991493463516, 0.42636042833328247], [0.1372174322605133, -0.5750569701194763, 0.1812860667705536, 0.049125589430332184, -1.001767873764038, 0.2391524761915207, -0.012896308675408363, 0.3442109525203705, -0.2890433073043823, 0.276401549577713, -0.022038234397768974, -0.15789175033569336, 0.3536953628063202, -0.08875509351491928, -0.04343317821621895, 0.49056339263916016, -0.08462192118167877, -0.7291067242622375, -0.2693573832511902, 0.9987651109695435, 0.11482527107000351, 0.17302370071411133, -0.85163813829422, 0.3400042951107025, -0.027322599664330482, 0.3590296506881714, 0.2704220712184906, 0.039346758276224136, 1.032779574394226, -0.11156550794839859, -0.3002772629261017, -0.24889780580997467, 0.1974247694015503, -0.633337676525116, 0.30604198575019836, 0.10810600966215134, -0.007945744320750237, 0.60532146692276, -0.07361001521348953, 1.221737265586853], [0.32562538981437683, -0.35764822363853455, 0.023734699934720993, -0.02118687704205513, -0.3532242178916931, 0.13775202631950378, 0.5470996499061584, 0.7029661536216736, 0.04992242529988289, -0.19796769320964813, 0.14273607730865479, -0.4006281793117523, -0.17156502604484558, 0.07876276969909668, 0.4332771897315979, 0.3642292618751526, -0.22801442444324493, 0.5106877088546753, 0.11132443696260452, 0.005633663386106491, -0.08286973088979721, -0.3134205639362335, -1.0008448362350464, -0.7124009728431702, 0.7388765811920166, -0.14662136137485504, -0.2197445183992386, 0.22481848299503326, -0.539677083492279, 0.22348999977111816, 0.00411481037735939, -0.45484232902526855, -0.13479633629322052, 0.38518470525741577, -0.02754168212413788, -0.9907465577125549, 0.21485507488250732, 0.16549913585186005, -0.008502856828272343, -0.8946323990821838], [0.20963038504123688, 0.5989691615104675, -0.3966405689716339, 0.08250673115253448, 0.3747263252735138, 0.04300585389137268, 0.4347050189971924, 0.23642747104167938, 0.3128771483898163, -0.18572334945201874, -0.17292466759681702, 0.2770431935787201, 0.06685757637023926, -0.15728512406349182, 0.16446831822395325, -0.16897425055503845, -0.41468095779418945, -0.7674830555915833, 0.28280869126319885, 0.451913446187973, 0.02165854349732399, 0.11930056661367416, -0.6705374717712402, 0.3318493664264679, 0.12937527894973755, -0.00866439938545227, -0.44101080298423767, 0.7430825233459473, -0.2391693890094757, 0.4162575602531433, 0.2667177617549896, 0.32297253608703613, -0.6585214734077454, -0.1901145577430725, -0.02233963832259178, 0.4316478669643402, -0.1723938286304474, 1.0141770839691162, 0.14539730548858643, 0.07593206316232681], [-0.033708494156599045, -0.09719930589199066, -0.044132452458143234, 0.13561800122261047, -0.6908402442932129, 0.16220617294311523, 1.0030040740966797, 0.027674691751599312, 0.2780221104621887, -0.025850504636764526, -0.09322035312652588, 0.8953744769096375, 0.2706819176673889, 0.46826305985450745, 0.06451564282178879, 0.7669464349746704, 0.2555435001850128, 0.41472524404525757, -0.25039219856262207, -0.17867527902126312, -0.5970962047576904, -0.28318092226982117, -0.25904417037963867, -0.30278876423835754, -0.480231910943985, 0.03804725408554077, 0.03572401776909828, 0.0921788364648819, 0.4308803081512451, -0.06913483142852783, -0.08512896299362183, 0.048585195094347, 0.7071449756622314, -0.7719213962554932, -0.8645506501197815, -0.1633247435092926, 0.3718286454677582, 0.4622407853603363, -0.4003172814846039, -0.09833402186632156], [0.5946127772331238, -0.3931874632835388, -0.04940089210867882, -0.26520293951034546, 0.008908029645681381, -0.11318231374025345, -0.7986564636230469, 0.029003208503127098, -0.011942418292164803, 0.5171276926994324, 0.1550973802804947, -0.005415169522166252, -0.12245029956102371, -0.13342911005020142, 0.4492257535457611, -0.6877568364143372, -0.1756395548582077, -1.1218453645706177, -0.25154390931129456, -0.5771939158439636, -0.07006633281707764, 0.04509248211979866, -0.8491653203964233, -0.3658298850059509, -0.3161822259426117, 0.6244568824768066, 0.304671049118042, -0.5037468075752258, -0.452245831489563, -0.1581878513097763, -0.7196594476699829, -0.5465163588523865, -0.264763742685318, 0.6462345123291016, 0.18045422434806824, 0.2569226920604706, 0.2982501983642578, -0.6546297073364258, 0.42593005299568176, -0.118128202855587], [0.13206486403942108, 0.05336933583021164, 0.3280235230922699, 0.029189223423600197, -0.2520626485347748, -0.09492791444063187, -0.1467972993850708, 0.7526000738143921, -0.48482200503349304, -0.21126192808151245, 0.05293697863817215, -0.08649858087301254, 0.12737679481506348, 0.1777808666229248, -0.31917139887809753, 0.0056254505179822445, 0.022586623206734657, 0.9865592122077942, 0.4964631199836731, -0.19639818370342255, -0.04415219649672508, 0.0799781009554863, 0.7886480093002319, 0.09160731732845306, 0.09133477509021759, -0.604033350944519, 0.0033904961310327053, -0.05732481926679611, -0.10839730501174927, 0.25913748145103455, 0.13106593489646912, -0.7982953190803528, -0.954832911491394, -0.060306280851364136, -0.8752725720405579, -0.5574989914894104, 0.1525726318359375, -0.10466423630714417, -0.11057253926992416, -0.22669987380504608], [0.17720022797584534, -0.20763738453388214, -0.06359654664993286, -0.03515354543924332, -0.6223688721656799, 0.11976000666618347, 0.2909236550331116, 0.06545688956975937, -0.2736261188983917, -0.36495891213417053, -0.2592984735965729, -0.08933504670858383, -0.26811012625694275, -0.1988663673400879, -0.4642362892627716, 0.3553200960159302, -0.13993898034095764, 0.3481239378452301, -0.3592817783355713, 0.48919299244880676, -0.09292242676019669, 0.39461708068847656, 1.1346125602722168, 0.18298819661140442, -0.3152446448802948, -0.15719786286354065, 0.496173620223999, -0.333984911441803, 0.21362055838108063, 0.21959049999713898, -0.315558522939682, 0.5830143690109253, 0.5751543045043945, 0.6118693351745605, -0.1129322275519371, -0.6917178630828857, -0.1425330638885498, 0.4991106688976288, -0.01130502950400114, 0.32790741324424744], [-0.025381028652191162, 0.6096639037132263, -0.09737249463796616, 0.027760684490203857, 0.5108218789100647, -0.222238227725029, -0.25482431054115295, 0.3286888301372528, 0.8242785334587097, -0.1436498761177063, 0.3589921295642853, 0.14139868319034576, 0.07146543264389038, -0.042462579905986786, 0.1326366662979126, 0.29731765389442444, -0.2768586277961731, 0.41344785690307617, 0.09427808970212936, 0.17308951914310455, 0.3780808746814728, 0.1195792704820633, 0.22726158797740936, -0.12103820592164993, -0.8349419236183167, 0.20981498062610626, -0.3786804974079132, 0.018297836184501648, 0.17642991244792938, -0.11094813048839569, -0.3146364092826843, -0.14579689502716064, -1.210925579071045, -0.10693453997373581, -0.4217604398727417, 0.2279263585805893, -0.18383561074733734, 0.10139862447977066, 0.06545931100845337, -0.3260801434516907], [-0.07862939685583115, -0.36021682620048523, -0.2624921500682831, -0.4970921277999878, 0.19141778349876404, -0.28141292929649353, -0.06260065734386444, 1.0754730701446533, -0.11004497855901718, -0.41331809759140015, -0.307809978723526, 0.4004860818386078, 0.23261287808418274, -0.1458417922258377, -0.198320671916008, -0.576539933681488, 0.4001798629760742, 0.7520809769630432, 0.12890297174453735, -0.2888290584087372, -0.12641261518001556, 0.010877387598156929, 0.6536047458648682, 0.20512144267559052, 0.3079165816307068, 0.2492436021566391, 0.4018297493457794, -0.23152144253253937, -0.751838207244873, 0.19276633858680725, 0.29226890206336975, -0.6057917475700378, 0.97774738073349, 0.5442078709602356, 0.16308508813381195, -0.23340672254562378, 0.25387099385261536, 0.09626747667789459, -0.33207419514656067, 0.2706619203090668], [-0.14760147035121918, -0.4413737654685974, -0.1457470953464508, 0.04171210527420044, 0.4780733287334442, -0.5047050714492798, 0.24403512477874756, 0.17424200475215912, -0.9368435144424438, -0.3016777038574219, -0.40790390968322754, -0.15228256583213806, 0.6637313365936279, 0.5356953740119934, -0.22569020092487335, -0.3338925242424011, -0.15563781559467316, 0.8682984113693237, 0.1799987256526947, -0.14077000319957733, -0.24258267879486084, 0.1971358209848404, 1.691188097000122, 0.010957208462059498, 0.6632316708564758, 0.15176376700401306, -0.17219425737857819, 0.1109408587217331, -0.19270719587802887, 0.18519702553749084, -0.1085750088095665, -0.38681110739707947, 0.21028591692447662, 0.29382771253585815, -0.7780855894088745, 0.05748673155903816, 0.10383616387844086, -0.36929717659950256, 0.11372754722833633, -0.7735260725021362], [-0.003014834364876151, -0.3696339726448059, 0.003940419293940067, -0.06493102014064789, -0.06793735921382904, -0.34149307012557983, 0.4311144948005676, 0.04808785766363144, 0.32671067118644714, -0.3941708505153656, 0.029552550986409187, -0.19666273891925812, 0.3543508052825928, -0.07501331716775894, 0.2953742444515228, 0.12997733056545258, 0.14388713240623474, -0.339751273393631, 0.24056708812713623, -0.3642157316207886, 0.17718352377414703, -0.2928501069545746, -1.4218047857284546, 0.12413006275892258, 0.23810510337352753, 0.23271889984607697, 0.016293589025735855, 0.5376150012016296, -0.010332560166716576, 0.2795397639274597, -0.48305460810661316, 0.25751757621765137, -0.8868787288665771, 0.011142228730022907, 0.47995972633361816, -0.2954731583595276, 0.08206869661808014, -0.21776442229747772, 0.4326183497905731, 0.47829046845436096], [0.039360541850328445, -0.1726612150669098, 0.016381913796067238, 0.1251021921634674, -0.10572295635938644, -0.4818279445171356, -0.3180522620677948, 0.7952331304550171, -0.001226898399181664, -0.2531992793083191, -0.06987272948026657, 0.4152747690677643, 0.1987839788198471, -0.06337030231952667, 0.6866586208343506, -0.21931321918964386, -0.15829357504844666, 1.2476959228515625, 0.17238178849220276, 0.15795496106147766, -0.18423348665237427, -0.20524044334888458, -0.05973522365093231, 0.07868935912847519, 0.4716359078884125, -0.049583207815885544, -0.11345469951629639, 0.5177541971206665, 1.0321708917617798, 0.11588482558727264, -0.009739342145621777, -0.4067770540714264, -0.14184308052062988, 1.2331281900405884, -0.2577388286590576, -0.15707261860370636, -0.7734223008155823, -0.6349634528160095, 0.35251590609550476, -0.6312364935874939], [-0.06393298506736755, -0.43836086988449097, -0.17718911170959473, -0.06916725635528564, 0.25370079278945923, 0.6070321798324585, 0.773304283618927, 0.1085735335946083, 0.07431825995445251, -0.20589220523834229, 0.3606821596622467, -0.03737659752368927, 0.30799901485443115, -0.04463496804237366, 0.08779773116111755, 0.8826890587806702, 0.13655196130275726, -0.15519466996192932, -0.007365766447037458, 0.0845671147108078, -0.6294411420822144, -0.28886812925338745, 0.8977870345115662, 0.24459947645664215, -0.2838760316371918, 0.25368189811706543, 0.16141527891159058, 0.25352734327316284, 0.8385021686553955, -0.5615260004997253, -0.48074135184288025, 0.3021391034126282, -0.49471592903137207, -0.31115078926086426, 0.7039396166801453, -0.967782735824585, 0.3177020847797394, 0.10346290469169617, 0.04741301387548447, 0.8315367698669434], [0.07654912769794464, -0.566825270652771, -0.1450197547674179, -0.3812016248703003, 0.14813631772994995, -0.05281965807080269, -0.2179500162601471, 0.48603928089141846, -0.19621433317661285, 0.2662341594696045, 0.05157295987010002, -0.4889402389526367, -0.19267621636390686, -0.3096485435962677, -0.03462253883481026, -0.36693209409713745, -0.0786282941699028, 0.818123459815979, 0.20583176612854004, -0.7267184257507324, 0.1649530977010727, 0.12961755692958832, 1.1227213144302368, -0.19299142062664032, 0.046138036996126175, 0.2608976662158966, -0.001752724521793425, -0.14486317336559296, -0.5729698538780212, 0.08110333979129791, -0.17871275544166565, 0.04045124351978302, -0.4675978422164917, 0.743415892124176, 0.14124399423599243, -0.21205902099609375, -0.09378229826688766, -0.647593080997467, -0.2508775293827057, 0.17067037522792816], [-0.22883062064647675, -0.033030107617378235, -0.34969285130500793, -0.3926613926887512, -0.012519664131104946, 0.648327112197876, 0.4939453601837158, -0.13207241892814636, 0.5582789778709412, 0.08804932236671448, -0.27371689677238464, 0.15246814489364624, 0.3003837466239929, -0.00636759540066123, 0.20930199325084686, 0.08206107467412949, -0.5159783959388733, -0.22638477385044098, 0.20941103994846344, 0.567888081073761, 0.3881455063819885, -0.03417230397462845, -0.06843648105859756, 0.7006230354309082, -0.3308553695678711, 0.28616562485694885, -0.294776052236557, 0.3841439485549927, 0.2726995348930359, -0.23443251848220825, 0.2290816456079483, 0.49858537316322327, 0.6166242957115173, -0.34728631377220154, 0.04507322236895561, 0.44880160689353943, 0.2095252275466919, -0.33106401562690735, -0.37460044026374817, 0.31800729036331177], [0.15880876779556274, 0.2510404586791992, 0.06601546704769135, 0.2557933032512665, -0.35106492042541504, -0.6942334175109863, 0.17179255187511444, 0.5406943559646606, 0.3486955165863037, -0.042614735662937164, 0.38944557309150696, -0.19683951139450073, -0.10120225697755814, 0.14499810338020325, -0.09869243204593658, 0.5070158839225769, 0.30745598673820496, 0.4582499861717224, 0.12075050920248032, -0.0987071543931961, 0.014584006741642952, -0.34550008177757263, -0.7151924967765808, 0.6255297064781189, -0.6200689673423767, 0.48278865218162537, -0.19280420243740082, 0.24874162673950195, -0.043747954070568085, 0.04732044041156769, -0.4401659667491913, -0.6014028191566467, -0.7330951690673828, -0.6402143239974976, -0.4358358383178711, -0.446492999792099, -0.012380214408040047, 0.21952082216739655, -0.5662420988082886, 0.04632415995001793], [-0.03853214904665947, 0.11534588038921356, 0.11231455951929092, 0.2993726134300232, 0.42232537269592285, 0.04774504899978638, 0.14230746030807495, -0.3848264813423157, -0.5484806299209595, -0.21012893319129944, -0.05491246283054352, 0.2775264084339142, 0.08359479904174805, 0.2477230727672577, -0.06125040352344513, 0.2735193371772766, 0.08204837143421173, -0.3159564435482025, 0.19759824872016907, 0.23793944716453552, 0.1169554591178894, 0.4414648413658142, 0.6975944638252258, -0.5452099442481995, -0.31700968742370605, 0.030270401388406754, -0.24231216311454773, -0.2125542312860489, -0.504494309425354, -0.04042031243443489, -0.5118953585624695, -0.7335442900657654, -0.32303234934806824, -0.24270372092723846, -0.11879251152276993, 0.1798582524061203, -0.04358397796750069, -1.3157931566238403, 0.19202645123004913, -0.5809844732284546], [-0.16173529624938965, 0.25928252935409546, -0.21039892733097076, 0.13160571455955505, -0.3502592444419861, 0.6565894484519958, 0.013164806179702282, -0.22912749648094177, -0.5926023721694946, 0.012178673408925533, 0.10071375966072083, -0.23498263955116272, -0.2911219596862793, -0.06896650046110153, -0.3996647000312805, -0.3632662892341614, 0.2910553514957428, -0.721234917640686, -0.2992723286151886, 0.09514938294887543, 0.17217878997325897, -0.05031495541334152, 1.1881135702133179, -0.03791900351643562, 0.1411750465631485, -0.2841605544090271, 0.14590634405612946, -0.06683862209320068, 0.2356373816728592, -0.23870940506458282, 0.4150143563747406, -0.17986039817333221, 0.34593233466148376, 0.9342581033706665, 0.6824390292167664, 0.31447935104370117, -0.14196635782718658, 0.35619258880615234, -0.424237996339798, 0.33650335669517517], [0.12162088602781296, 0.491323322057724, 0.1157291904091835, 0.6274576187133789, 0.6489970088005066, 0.009649880230426788, 0.3265726566314697, 0.7632341384887695, 0.1647665649652481, 0.6315822601318359, -0.08063458651304245, -0.21440660953521729, -0.48050275444984436, 0.6174197196960449, 0.4332384169101715, -0.3409889042377472, -0.0004061178769916296, -0.04061037674546242, -0.02895534597337246, -0.12343261390924454, -0.005698258522897959, 0.2817023694515228, -1.1955846548080444, -0.33943551778793335, -0.4702850580215454, 0.368802934885025, -0.88181471824646, -0.17533141374588013, 0.805162787437439, -0.31420281529426575, -0.19979865849018097, -0.13325053453445435, 0.6369466185569763, -0.5229261517524719, -0.13661561906337738, -0.36641934514045715, -0.021814875304698944, -0.4213609993457794, -0.34955495595932007, 0.11128484457731247], [-0.0996234118938446, 0.2357330322265625, -0.20807763934135437, 0.03790731355547905, -0.33483266830444336, 0.12646088004112244, -0.4645804166793823, 0.19177129864692688, 0.22958236932754517, 0.24349482357501984, -0.21784208714962006, -0.09377741813659668, -0.7558043599128723, -0.08089061081409454, -0.07717251777648926, -0.17379015684127808, -0.8971437215805054, 0.18876679241657257, 0.09029656648635864, 0.6766439080238342, 0.08062703907489777, -0.16886743903160095, -0.45451998710632324, -0.1840600073337555, 0.5156551599502563, -0.3180621564388275, 0.013872528448700905, -0.03557821363210678, 0.9012348055839539, 0.06332755833864212, 0.47034767270088196, -0.7866257429122925, 0.5005194544792175, 0.7163412570953369, 0.20267510414123535, -0.3121793270111084, 0.39055126905441284, 0.08247002959251404, 0.2276299148797989, 0.34168148040771484], [-0.0034660750534385443, -0.45043569803237915, 0.09231336414813995, 0.07373003661632538, 0.945188581943512, -0.3031190037727356, -0.2909489572048187, 0.7751811146736145, -0.11191965639591217, 0.16555266082286835, 0.2038906216621399, -0.17632928490638733, 0.11085081845521927, 0.043831612914800644, 0.08798614144325256, -0.192046120762825, 0.10135512053966522, -0.04220804572105408, 0.15494230389595032, -0.3046919107437134, 0.019020073115825653, -0.11104101687669754, -1.1766269207000732, -0.6006569266319275, -0.10670515149831772, 0.026919156312942505, 0.06875485181808472, -0.1188153475522995, 1.5214563608169556, 0.035586461424827576, 0.1684129238128662, -0.5255401730537415, -0.40491998195648193, 0.05844956636428833, 0.3432946503162384, -0.10563298314809799, 0.27856913208961487, -0.17549245059490204, 0.1974663883447647, 1.129686951637268], [0.05136270821094513, -0.3020760715007782, 0.16206271946430206, -0.16145172715187073, -0.39177238941192627, 0.07215479016304016, 0.4867970049381256, 0.8604925274848938, 0.02577436901628971, 0.22142580151557922, -0.2332632839679718, 0.11519694328308105, -0.32115235924720764, -0.0917191207408905, -0.10994206368923187, -1.6291782855987549, 0.17874522507190704, -0.7178997993469238, -0.5097872614860535, 0.5931908488273621, 0.19205255806446075, -0.14256182312965393, -1.4581600427627563, -0.29855841398239136, -0.3296635150909424, -0.03833334147930145, -0.32169535756111145, 0.5164222717285156, -0.10743001103401184, 0.05141083896160126, -0.293886661529541, -0.1558937430381775, 1.5154352188110352, -0.5586650371551514, 0.6689150929450989, 0.13445360958576202, 0.21070383489131927, -0.02984011173248291, 0.14470866322517395, 1.2369990348815918], [-0.16310065984725952, -0.5350987315177917, 0.1667613983154297, 0.03189637139439583, -0.28879454731941223, 0.5955049991607666, 0.12340015918016434, -0.2921227812767029, 0.3493277430534363, -0.044770173728466034, 0.011023594066500664, 0.0913383737206459, -0.2932656705379486, -0.15588665008544922, -0.3955131471157074, 0.688800036907196, -0.18026451766490936, 0.4218541979789734, -0.30617743730545044, 0.08860621601343155, 0.09687793999910355, -0.018036849796772003, 0.5901423692703247, -0.543574869632721, 0.4084724187850952, -0.16593116521835327, 0.24818380177021027, 0.08570976555347443, -0.05525435507297516, -0.12514494359493256, 0.06421981006860733, -0.09967852383852005, -1.0584734678268433, -0.33267223834991455, -0.1812799870967865, -0.002301987959071994, -0.17675453424453735, 0.5153543949127197, -0.45206689834594727, 0.31051504611968994], [-0.34627896547317505, -0.48730701208114624, -0.2545006573200226, -0.19989138841629028, -0.5124297142028809, 0.6706200838088989, -0.22900280356407166, 0.5514548420906067, 0.41646531224250793, -0.29378512501716614, -0.2694949507713318, 0.10035322606563568, 0.04438142105937004, -0.21539317071437836, -0.4665068984031677, 0.2383214384317398, 0.09632880240678787, 1.3915859460830688, 0.35251957178115845, 0.41287264227867126, -0.009039782918989658, -0.24363331496715546, 0.9814016222953796, 0.30082908272743225, -0.049300625920295715, -0.16103333234786987, -0.04806402698159218, 0.03149150684475899, 0.5996436476707458, 0.13137570023536682, 0.8393036127090454, -0.7551857233047485, 0.021391108632087708, 0.04480981454253197, -0.0021209619008004665, -0.21730443835258484, -0.03661566227674484, -0.4505308270454407, 0.3541082739830017, 0.8405710458755493], [0.11187565326690674, -0.33069905638694763, -0.3155190646648407, -0.08821605890989304, -0.13884757459163666, -0.23230329155921936, 0.16786231100559235, -0.39337605237960815, 0.6451317071914673, 0.10789122432470322, -0.26979976892471313, 0.29052838683128357, 0.3178032636642456, 0.2882945239543915, 0.06801460683345795, -0.5660233497619629, 0.131740540266037, 0.011354693211615086, -0.11647121608257294, -0.12550559639930725, 0.2525790333747864, 0.08778789639472961, 0.11458951979875565, -0.12563031911849976, -0.5163307785987854, 0.33230510354042053, -0.5694836974143982, -0.2441377341747284, -0.604496419429779, 0.538032591342926, -0.8019307851791382, -0.045582082122564316, -0.5757017731666565, 1.139672040939331, -0.060908202081918716, -0.3973778486251831, 0.2675694227218628, -0.040365949273109436, -0.15515854954719543, -0.04131938889622688], [0.39927932620048523, -0.07087280601263046, 0.2951560318470001, 0.4768216609954834, -0.5041345357894897, 0.29813918471336365, 0.2039766162633896, -0.007347182370722294, -0.5946412682533264, 0.13170592486858368, -0.4519953429698944, 0.49562832713127136, 0.1184794157743454, 0.1482713222503662, 0.031313590705394745, 1.664730429649353, -0.21898815035820007, -0.19494780898094177, 0.06858617067337036, -0.4005052149295807, 0.10705968737602234, 0.7369728684425354, -0.02035580202937126, -0.5072387456893921, -0.42896732687950134, -0.29860690236091614, -0.3166130483150482, -0.02590455673635006, 0.5427932739257812, 0.1150064691901207, -0.7192884087562561, -0.27313733100891113, 0.19325396418571472, -0.008145942352712154, -0.26409658789634705, -0.5881615281105042, -0.12272853404283524, -0.013183851726353168, -0.07284057140350342, -0.888069748878479], [-0.029869096353650093, -0.060169823467731476, 0.12948422133922577, -0.17833049595355988, -0.2840818762779236, -0.8194795250892639, -0.44270917773246765, 0.08200758695602417, 0.5987498760223389, -0.031202755868434906, -0.09194093197584152, 0.1254945993423462, 0.5198261737823486, -0.011721350252628326, 0.49131038784980774, -0.6965378522872925, 0.08008359372615814, -0.05286687985062599, -0.5543683767318726, 0.427765429019928, 0.03258780017495155, 0.007169364485889673, -0.5255601406097412, -0.12605968117713928, 0.28494155406951904, -0.3313237428665161, 0.18795964121818542, 0.0022637699730694294, -1.0247842073440552, -0.004770565312355757, -1.0140302181243896, 0.292672336101532, 0.027083612978458405, -0.23541980981826782, 0.31064289808273315, -0.3959071934223175, 0.38991275429725647, 0.08573790639638901, -0.4571647644042969, -0.08182843774557114], [-0.03610413148999214, 0.16484874486923218, -0.16312913596630096, -0.2976645231246948, -0.012622791342437267, 0.5087222456932068, -0.020872147753834724, -0.03787701204419136, 0.3456939458847046, -0.11898250877857208, -0.14109204709529877, -0.1439998298883438, -0.23002436757087708, -0.08494684100151062, -0.06350861489772797, 0.4644394516944885, -0.0361054465174675, -0.55277419090271, -0.18912829458713531, 0.06271950900554657, -0.13624697923660278, 0.07556071132421494, 0.017782902345061302, 0.35710471868515015, 0.519607424736023, -0.19121339917182922, 0.19086448848247528, -0.23860907554626465, -0.0804801806807518, -0.25193384289741516, -0.05544302612543106, 0.12442348152399063, 0.42367038130760193, 0.8852864503860474, 0.3761647045612335, -0.1355491429567337, -0.10716857761144638, -0.12387564033269882, -0.1831374317407608, 0.014478959143161774], [-0.09285207837820053, -0.4055160582065582, -0.16949498653411865, 0.05706382170319557, -0.24939361214637756, -0.32728952169418335, 0.13017968833446503, 0.4967300593852997, 0.5687456130981445, -0.5610974431037903, 0.013083143159747124, 0.230324387550354, -0.3341526389122009, -0.02698475494980812, 0.010267801582813263, 0.08344288915395737, 0.021636657416820526, 1.61325204372406, -0.550525963306427, -0.16732706129550934, -0.2626805305480957, 0.1186002641916275, 1.626632571220398, 0.14738479256629944, 0.6952036023139954, 0.19965675473213196, 0.03000897355377674, -0.3388206660747528, 0.6993922591209412, -0.219097301363945, 0.31420719623565674, 0.5922839641571045, 0.0667467787861824, -0.13785333931446075, 0.7417563199996948, -1.096462607383728, 0.04269297048449516, 0.9322887063026428, -0.2862820625305176, 0.010215814225375652], [-0.17724613845348358, -0.2664332985877991, 0.035381704568862915, -0.12934421002864838, 0.16343815624713898, 0.23351456224918365, 0.35764095187187195, 0.06531479209661484, -0.6732791662216187, 0.12155213207006454, 0.0009231284493580461, -0.3952026665210724, 0.1281166523694992, -0.23838113248348236, 0.028117716312408447, 0.1912209540605545, -0.21859674155712128, -0.4401301145553589, -0.34108632802963257, 0.5947550535202026, 0.27618420124053955, 0.1782722771167755, 1.381758451461792, 0.2828015387058258, -0.06311041861772537, 0.04117793217301369, 0.6373900175094604, -0.005430888384580612, -1.0746791362762451, 0.3516416549682617, 0.060208212584257126, 0.8312148451805115, -0.3374284505844116, 0.7907101511955261, 0.12850548326969147, -0.4581831991672516, 0.02464984729886055, 0.6289379596710205, -0.9532782435417175, -0.04088965058326721], [-0.10002762824296951, 0.15847669541835785, 0.15596415102481842, 0.359360009431839, -0.1400250792503357, -0.051335059106349945, -0.6666789054870605, -0.6758312582969666, 0.1419256031513214, -0.22663255035877228, 0.2660396993160248, -0.1910494714975357, 0.10604424774646759, -0.12049891799688339, -0.12783034145832062, -0.6219092011451721, -0.10823985934257507, -0.20953361690044403, -0.03198503702878952, -0.28296688199043274, 0.08564469963312149, 0.005952390842139721, 1.0520122051239014, 0.03789759427309036, 0.5101320147514343, 0.08178729563951492, 0.13074463605880737, -0.2886505722999573, -0.12172587215900421, -0.08999054878950119, 0.2859092950820923, -0.35006773471832275, -1.13749098777771, 0.8167007565498352, 0.8544332981109619, 0.04511817544698715, -0.007530669681727886, -0.303720623254776, -0.17382751405239105, 0.3704872131347656], [0.02693093568086624, -0.11780213564634323, 0.22665871679782867, 0.3295804262161255, -0.11808555573225021, -0.34047210216522217, -0.10416387766599655, -0.15592385828495026, -0.5111972689628601, 0.06709546595811844, 0.27818819880485535, 0.22265882790088654, -0.23994532227516174, -0.4381270110607147, 0.11340893059968948, 0.061923783272504807, 0.20664559304714203, -0.650193452835083, 0.06034873425960541, -0.18226327002048492, -0.06834135204553604, 0.30221304297447205, 0.022268807515501976, 0.2810074985027313, 0.47628673911094666, 0.41299736499786377, -0.30136093497276306, -0.07096751034259796, 0.396796852350235, 0.10940812528133392, -0.2038065791130066, 0.08515234291553497, -0.4064078629016876, -0.9321160316467285, -0.8037177324295044, -0.12713319063186646, 0.13458645343780518, -0.33877530694007874, 0.3530193269252777, 0.2760775685310364], [0.19856373965740204, -0.008594109676778316, -0.16353709995746613, 0.2547036409378052, 0.30052605271339417, 0.37698501348495483, -0.18692132830619812, -0.03433096408843994, 0.49550822377204895, 0.37678685784339905, -0.4768710732460022, -0.2760660648345947, -0.12169723212718964, 0.11344577372074127, 0.3074110150337219, 0.8955457806587219, -0.2734341025352478, 0.6218244433403015, -0.5998833179473877, 0.1664208620786667, -0.24093687534332275, -0.03824404999613762, 0.35417473316192627, -0.6846936941146851, 0.4507236182689667, 0.5914229154586792, -0.3777966797351837, 0.1371513456106186, 0.35428386926651, -0.4080134928226471, -0.14273084700107574, -0.27593734860420227, -0.9631898999214172, 0.1754654347896576, -0.34427908062934875, -0.13169077038764954, -0.0016523892991244793, -0.3801436424255371, -0.037131909281015396, -0.5688385367393494], [-0.3439892530441284, -0.2627142667770386, -0.12579497694969177, 0.34174832701683044, 0.07080591470003128, -0.5553210377693176, -0.21193699538707733, 0.12472610920667648, -0.02600085362792015, -0.04771732911467552, -0.10445540398359299, 0.18849986791610718, 0.30953094363212585, 0.1305892914533615, 0.09804797917604446, -0.08752883970737457, -0.20671330392360687, 1.0362703800201416, 0.19891731441020966, 0.27186036109924316, -0.34467193484306335, 0.11041269451379776, -0.9110113978385925, 0.3951021134853363, 0.220021054148674, -0.5290209054946899, -0.6661595106124878, 0.0010292805964127183, -0.08102542161941528, 0.1614610254764557, 1.0046223402023315, -0.14283487200737, 0.2527614235877991, -0.3043898940086365, 0.6579903960227966, 0.5071651339530945, -0.36248746514320374, -0.2788047194480896, 0.5762361884117126, -0.8938041925430298], [0.14629465341567993, 0.3422369658946991, -0.22685720026493073, -0.0064171296544373035, 0.27865493297576904, 0.19659101963043213, -0.49277934432029724, 0.6758403778076172, 0.25497445464134216, -0.2511220872402191, 0.3085516691207886, -0.3748599886894226, 0.3082517981529236, -0.26799917221069336, -0.1970089077949524, -1.1614183187484741, -0.7758083939552307, 0.025478165596723557, -0.09799878299236298, 0.04755457118153572, 0.11598218232393265, -0.017689436674118042, 1.207494854927063, 0.22538024187088013, -0.024091042578220367, -0.04196662828326225, -0.06256008893251419, -0.028900766745209694, 0.4645814597606659, -0.4313286244869232, 0.23429067432880402, 0.2929699420928955, -0.7183799743652344, 0.8577535152435303, -0.46033474802970886, -0.43999335169792175, 0.07619555294513702, 0.5061513185501099, -0.5143234729766846, -0.3033047318458557], [-0.37915173172950745, 0.11107365041971207, 0.1335580050945282, 0.2177281528711319, -0.04877912253141403, 0.39255234599113464, 0.5246982574462891, 0.5868128538131714, -0.6674747467041016, -0.5707890391349792, -0.29623836278915405, 0.01759694516658783, 0.029101386666297913, -0.16822312772274017, -0.15514996647834778, 0.25923553109169006, 0.13685092329978943, -0.5964595079421997, -0.08843818306922913, 0.12471650540828705, -0.25223007798194885, 0.3026246726512909, 0.7012292146682739, -0.21954944729804993, -0.20383547246456146, -0.2943834960460663, 0.4803985059261322, 0.44831761717796326, -0.1873142272233963, -0.345348060131073, -0.02013603039085865, 0.6390974521636963, 0.48289552330970764, 0.46968841552734375, 0.7160069346427917, -0.07585109025239944, -0.0009851375361904502, 0.1382448971271515, 0.03496678173542023, -0.3992139399051666], [0.34211403131484985, -0.38429024815559387, 0.027881106361746788, 0.19908249378204346, 0.17640118300914764, -0.510861337184906, 0.12745893001556396, -0.42159950733184814, -0.06670187413692474, 0.138061061501503, -0.09080206602811813, 0.31159383058547974, 0.07969805598258972, -0.1234467625617981, 0.16515807807445526, 0.39667385816574097, 0.14850932359695435, -1.0746173858642578, 0.3223607838153839, 0.056042708456516266, -0.0501919724047184, -0.008238079957664013, 0.008462649770081043, -0.5687750577926636, -0.07067392021417618, -0.1637147217988968, -0.11964893341064453, -0.0596957802772522, -0.3802378177642822, -0.2615823745727539, 0.3021407127380371, -0.17538636922836304, -0.11955241113901138, 0.08694324642419815, 0.3922084867954254, -0.49351662397384644, -0.36322206258773804, -1.0513056516647339, -0.2043311893939972, 0.14585605263710022], [0.24754764139652252, -0.325901597738266, 0.16341140866279602, -0.23850023746490479, -0.11662369221448898, -0.6086180210113525, 0.31864839792251587, 0.1942618489265442, -0.21255500614643097, 0.005401367787271738, -0.07882079482078552, -0.07197444140911102, -0.167690709233284, -0.11600396782159805, -0.10409924387931824, 0.13140040636062622, -0.06264907121658325, 0.3629204332828522, 0.06098855659365654, 0.509577214717865, 0.18172547221183777, -0.11075298488140106, 0.41337525844573975, 0.06593968719244003, 0.25103533267974854, 0.32361525297164917, -0.4282623529434204, -0.5009362101554871, 0.5417467951774597, -0.40660354495048523, 0.33182013034820557, -0.017445920035243034, 0.014954236336052418, 0.4612315595149994, -0.9059401750564575, -1.0506255626678467, -0.07033176720142365, 0.033311668783426285, 0.27222946286201477, 0.2192651480436325], [-0.05941842868924141, 0.1975625455379486, -0.09725561738014221, 0.05871438607573509, -0.2965490221977234, -0.2641870975494385, 0.1780683398246765, -0.6620355248451233, 0.8487062454223633, -0.29977473616600037, -0.16447187960147858, 